// ==UserScript==
// @name        okta
// @namespace   ypcat.csie.org
// @include     https://*.okta.com/login/second-factor-challenge*
// @include     file://*/test.html
// @require     http://code.jquery.com/jquery.min.js
// @require     https://github.com/downloads/harthur/brain/brain-0.6.0.js
// @require     https://github.com/downloads/harthur/hog-descriptor/hog-0.3.0.js
// @version     1.01
// @grant       all
// ==/UserScript==

$(function(){
    "use strict";

    var getUserMedia = navigator.getUserMedia || navigator.webkitGetUserMedia || navigator.mozGetUserMedia || navigator.msGetUserMedia || navigator.oGetUserMedia;
    var requestAnimationFrame = window.requestAnimationFrame || window.webkitRequestAnimationFrame || window.mozRequestAnimationFrame || window.oRequestAnimationFrame || window.msRequestAnimationFrame;
    var net = new brain.NeuralNetwork();
    var training_data = [];
    var max_confidence = 0;
    var fired = 0;

    // load saved training data from local storage
    if(!localStorage.ocr){
        localStorage.ocr = '{"layers":[{"0":{},"1":{},"2":{},"3":{},"4":{},"5":{},"6":{},"7":{},"8":{},"9":{},"10":{},"11":{},"12":{},"13":{},"14":{},"15":{},"16":{},"17":{},"18":{},"19":{},"20":{},"21":{},"22":{},"23":{},"24":{},"25":{},"26":{},"27":{},"28":{},"29":{},"30":{},"31":{},"32":{},"33":{},"34":{},"35":{},"36":{},"37":{},"38":{},"39":{},"40":{},"41":{},"42":{},"43":{},"44":{},"45":{},"46":{},"47":{},"48":{},"49":{},"50":{},"51":{},"52":{},"53":{},"54":{},"55":{},"56":{},"57":{},"58":{},"59":{},"60":{},"61":{},"62":{},"63":{},"64":{},"65":{},"66":{},"67":{},"68":{},"69":{},"70":{},"71":{},"72":{},"73":{},"74":{},"75":{},"76":{},"77":{},"78":{},"79":{},"80":{},"81":{},"82":{},"83":{},"84":{},"85":{},"86":{},"87":{},"88":{},"89":{},"90":{},"91":{},"92":{},"93":{},"94":{},"95":{},"96":{},"97":{},"98":{},"99":{},"100":{},"101":{},"102":{},"103":{},"104":{},"105":{},"106":{},"107":{},"108":{},"109":{},"110":{},"111":{},"112":{},"113":{},"114":{},"115":{},"116":{},"117":{},"118":{},"119":{},"120":{},"121":{},"122":{},"123":{},"124":{},"125":{},"126":{},"127":{},"128":{},"129":{},"130":{},"131":{},"132":{},"133":{},"134":{},"135":{},"136":{},"137":{},"138":{},"139":{},"140":{},"141":{},"142":{},"143":{},"144":{},"145":{},"146":{},"147":{},"148":{},"149":{},"150":{},"151":{},"152":{},"153":{},"154":{},"155":{},"156":{},"157":{},"158":{},"159":{},"160":{},"161":{},"162":{},"163":{},"164":{},"165":{},"166":{},"167":{},"168":{},"169":{},"170":{},"171":{},"172":{},"173":{},"174":{},"175":{},"176":{},"177":{},"178":{},"179":{},"180":{},"181":{},"182":{},"183":{},"184":{},"185":{},"186":{},"187":{},"188":{},"189":{},"190":{},"191":{},"192":{},"193":{},"194":{},"195":{},"196":{},"197":{},"198":{},"199":{},"200":{},"201":{},"202":{},"203":{},"204":{},"205":{},"206":{},"207":{},"208":{},"209":{},"210":{},"211":{},"212":{},"213":{},"214":{},"215":{}},{"0":{"bias":0.03797648218774632,"weights":{"0":-0.04127505719337145,"1":-0.0785326379905326,"2":-0.04658649511138806,"3":0.19082541178312107,"4":-0.17833121895995444,"5":0.17520215837162767,"6":0.12668135486879178,"7":0.062445132105281145,"8":0.13579094367713868,"9":0.20129883481443042,"10":-0.13949323636331562,"11":0.08420753419377759,"12":0.1241608205797153,"13":-0.03487840894577655,"14":0.15346311514362618,"15":-0.17688151518613682,"16":-0.1194512737992067,"17":-0.02344534097506392,"18":0.22349127548789519,"19":0.04525973098085749,"20":-0.1333761035056476,"21":0.05428707779751941,"22":-0.11474089392310749,"23":-0.03542342797246416,"24":-0.06798844440802723,"25":-0.21557065379990825,"26":0.23924824617876297,"27":-0.0032317538039407906,"28":-0.18174252646359446,"29":-0.06414649884035635,"30":-0.1419290472356432,"31":-0.12954710434478242,"32":0.05140517233659698,"33":-0.09726854280651426,"34":0.02488319404579844,"35":0.15811820376186791,"36":0.23237308066230122,"37":-0.06128314860216979,"38":-0.24913386140567703,"39":-0.1485484026316778,"40":-0.18325191495451576,"41":-0.0320968994434231,"42":0.01736653231873965,"43":0.22366418023376922,"44":-0.16601440760908948,"45":0.07264753342055157,"46":-0.19492372799114283,"47":-0.045897072681764094,"48":0.16722232508725007,"49":-0.21885937700125146,"50":0.13361814011544138,"51":0.018731489065366185,"52":-0.16931075441033874,"53":0.06502426099789484,"54":0.19789443258930453,"55":0.1416855404354879,"56":0.10458341990488237,"57":-0.15733683058905695,"58":-0.22784261776061016,"59":-0.1642144278784421,"60":-0.03379453050126457,"61":0.1581428547162139,"62":-0.12772594171618484,"63":0.03326875102050928,"64":-0.10211780272826643,"65":0.1811645763012515,"66":-0.11603488818176577,"67":0.09348323001244185,"68":-0.08908232720208609,"69":0.03380088589765034,"70":-0.1442037780280518,"71":0.07487422189946791,"72":-0.17211791241189256,"73":0.07032574578567993,"74":0.006540783372537345,"75":0.10525297500916529,"76":0.1119658062950373,"77":-0.0027748752454309963,"78":0.12188264856335987,"79":0.0012827647455102443,"80":-0.15174547221441903,"81":0.13073359977056562,"82":-0.0032920053294683586,"83":0.12528517618571988,"84":-0.12484956902908502,"85":-0.21998859741550483,"86":0.28881971029795955,"87":-0.0031355561865920602,"88":0.10909824447168831,"89":-0.135976901325826,"90":-0.029220408884325498,"91":-0.40092310335354164,"92":-0.1290988307060094,"93":0.26837629280582753,"94":0.16764029658538931,"95":-0.08197889301578964,"96":0.09602482544497794,"97":0.14263648238855436,"98":-0.10296016744887274,"99":0.12318957581936774,"100":-0.2882288479827227,"101":0.18139550684736874,"102":-0.0026354264435853292,"103":0.15798826733484359,"104":-0.11991700785905043,"105":-0.09541013863774087,"106":-0.09003880318055603,"107":0.15357937361603627,"108":0.21921169078867375,"109":-0.15032669509298593,"110":-0.374747675099569,"111":0.09594700951573275,"112":0.08622982698923323,"113":0.07785665701757366,"114":0.022646489441994277,"115":-0.05803859394068877,"116":-0.22380259006151687,"117":-0.03158319670137909,"118":-0.08145508963207178,"119":-0.06398149520459388,"120":0.09586762855402181,"121":0.17299400740876836,"122":0.028789895296566705,"123":-0.007317648896444439,"124":-0.23487289638120992,"125":0.14099339962570803,"126":0.00039111547409409415,"127":-0.08635053963521712,"128":-0.2675517741023726,"129":0.16296102909052154,"130":-0.15776987222286112,"131":0.22624353599953717,"132":0.2332779950996182,"133":-0.1471460976257378,"134":-0.18495065287504506,"135":-0.021063913669737165,"136":-0.027950660613480394,"137":-0.16418012478336524,"138":0.2512663119097352,"139":-0.04410612089730761,"140":-0.00014317719452960206,"141":0.0914557223994177,"142":0.1469155858120326,"143":0.19871989941595097,"144":-0.1259015805869677,"145":-0.17564139430946757,"146":0.23803715020850597,"147":-0.13070886126280223,"148":-0.047222367722921786,"149":0.0934759550624015,"150":0.2132306739482344,"151":-0.3331154779455925,"152":-0.42906478495107525,"153":0.16959748595009816,"154":0.11880689783596433,"155":0.05956148763814269,"156":0.08009466997406584,"157":0.11055378691796801,"158":0.11138661263150094,"159":0.15602141510878512,"160":0.33226901584568885,"161":-0.009658342375821083,"162":0.11747145974744022,"163":-0.09254391850285866,"164":0.034048292660617485,"165":0.13277129365837215,"166":-0.015832102694701245,"167":-0.016292073057344408,"168":-0.1261368971349628,"169":-0.38316921866448644,"170":-0.3639985289833023,"171":-0.04971325250616567,"172":0.2611573745584269,"173":-0.039009864909437655,"174":-0.05340998417144623,"175":-0.06479565250329326,"176":-0.16979465970789936,"177":0.08927906588699708,"178":-0.21915197537859585,"179":0.07110483346037454,"180":-0.001383730347165221,"181":-0.11925469638542771,"182":0.2505394653792637,"183":0.12511691339246458,"184":0.03360978806428415,"185":0.10504435964513356,"186":-0.11789814122416849,"187":0.23642722827013832,"188":0.08340559408539508,"189":-0.18370109811045843,"190":-0.008527484259514679,"191":-0.047636091102362124,"192":0.048802096933388814,"193":-0.19959924320438185,"194":-0.31103886808938164,"195":0.2308753236290572,"196":0.008577113684840192,"197":0.09854099967687485,"198":0.024180835399986656,"199":0.1131753276624904,"200":-0.03790113182971801,"201":0.172666997749226,"202":0.13267986687107164,"203":-0.0660998041889425,"204":0.06031574923003599,"205":0.028548647489262106,"206":-0.15385360341179244,"207":0.17820102364449114,"208":0.1734456460298719,"209":-0.19045859675069898,"210":-0.11609174818133723,"211":0.20900496004018057,"212":-0.12183921609724672,"213":0.10090286846055337,"214":-0.09926885708404999,"215":-0.1101497717575914}},"1":{"bias":-0.013948656565313142,"weights":{"0":-0.06055596128234197,"1":0.02346189352301058,"2":0.11459963131189806,"3":0.16669779679253882,"4":0.062389041649777745,"5":0.14632322129679207,"6":-0.19829480352960155,"7":-0.19182034960311264,"8":-0.15752299753171795,"9":0.06765066035113788,"10":0.08834073210907303,"11":0.06757005091033917,"12":0.010386521425269914,"13":-0.12466514614324377,"14":0.049923027379662054,"15":-0.10166455012490103,"16":0.09338144530628412,"17":0.007579167623012944,"18":-0.16166010191398092,"19":-0.3421616745515726,"20":0.213364826794109,"21":-0.04697219208743578,"22":0.16862594713140108,"23":0.17551228450761902,"24":0.12358415196978441,"25":-0.05612396358370231,"26":-0.026669604314715947,"27":0.05255524530147947,"28":-0.10639023556376508,"29":-0.06538153258285898,"30":-0.05855507409669743,"31":-0.05201334727890068,"32":0.14298908223614265,"33":-0.251694756261543,"34":0.021325916736807105,"35":0.13005490823260757,"36":0.028925424578376956,"37":0.02222254970100538,"38":0.09597668205683792,"39":0.13889603439229345,"40":-0.014897841046337443,"41":0.1484024828208324,"42":0.028528708212972365,"43":-0.1583146699007357,"44":-0.009763783229451687,"45":-0.05460889024486446,"46":-0.07422341837828947,"47":-0.031611277047965215,"48":-0.015075014312338162,"49":-0.10088625909065403,"50":0.2830641728542585,"51":0.0855166713613232,"52":0.09107809522667595,"53":-0.058210762069764464,"54":-0.19142377956533588,"55":0.13370153606324753,"56":0.17235936523111062,"57":-0.05436433903786923,"58":-0.14498329433535914,"59":0.18877274220134777,"60":-0.03875869609492018,"61":-0.36850575809631,"62":0.1740296408540579,"63":0.11534006090354225,"64":0.04982462837919832,"65":-0.20005272734817486,"66":0.020151203524888237,"67":0.059381199297653134,"68":-0.041434572336167784,"69":0.06462701184732576,"70":-0.00031607409031040906,"71":-0.30092493642346135,"72":0.014353087055105223,"73":-0.27000955875353383,"74":0.003960814243829617,"75":-0.14224891425080366,"76":0.10021747833229507,"77":-0.07528933132203629,"78":-0.183822742443504,"79":-0.13494415601142598,"80":0.17288017780135626,"81":0.03423932157385088,"82":0.121316413148037,"83":0.11832730186125713,"84":0.1510797795297932,"85":-0.08606996805326514,"86":-0.14410126481962487,"87":0.09839021094535777,"88":0.14361362544516967,"89":0.16115289530553567,"90":0.06462185467485637,"91":-0.1142458784531312,"92":-0.09352793690512119,"93":-0.24636234630905562,"94":-0.0949408601892972,"95":0.011360046238198132,"96":0.1264262041499858,"97":0.014706602894656896,"98":0.035905751956711134,"99":0.003443513606856927,"100":0.16900785895652543,"101":0.1212105675622664,"102":0.030474694056898267,"103":-0.2981105009090871,"104":0.2175014690449204,"105":0.21043062605645638,"106":-0.02659001320028093,"107":0.10625932132117576,"108":-0.051098751672212964,"109":-0.1883773612417273,"110":-0.0375394614768422,"111":-0.1571252725636076,"112":0.12366558379864882,"113":-0.10447036023832756,"114":0.25686971811247794,"115":0.040778620391986806,"116":-0.07829900781640195,"117":0.16680738498932038,"118":0.0748078161822747,"119":0.19038258745548475,"120":0.029118523176343843,"121":-0.24278320094713648,"122":0.11357510229097964,"123":0.127390680975218,"124":-0.09931597418693185,"125":-0.1369872567190355,"126":-0.17008517921600366,"127":-0.2102799932753608,"128":0.09525745593153215,"129":-0.14415255717316,"130":0.055619455986283484,"131":-0.025567864716314788,"132":-0.02531531364575221,"133":-0.35768482774427557,"134":-0.029759329466968895,"135":-0.02122120682217793,"136":-0.08198122958302408,"137":0.17559200790726595,"138":-0.06755773379084049,"139":-0.00952461008944298,"140":-0.09419112890199291,"141":-0.007057242464803103,"142":-0.03629619276128981,"143":0.19027122634834304,"144":0.10500263184722798,"145":-0.2771079341121839,"146":0.14133854650075833,"147":-0.03908348076022175,"148":0.09927612430506226,"149":0.13722610893734896,"150":0.07074401410146923,"151":-0.19710952140462548,"152":0.0215233796789719,"153":-0.27105523002967746,"154":0.14790075497478733,"155":0.1002412316311885,"156":-0.09617596440781895,"157":0.005709744293319006,"158":0.07471630901876847,"159":-0.006434407447776752,"160":0.2609108761421219,"161":-0.041758820951376265,"162":0.22477113478601918,"163":-0.2339116373263687,"164":-0.005249464648034755,"165":-0.10110447256397656,"166":-0.06804924446408231,"167":-0.09257846680914797,"168":0.102910267029856,"169":0.10610062608881302,"170":0.06919139118629962,"171":-0.2111624324666091,"172":0.05382112836740543,"173":-0.010351901739263208,"174":0.005178741482080947,"175":-0.13650267678446418,"176":0.008743374045904674,"177":-0.039154475958212205,"178":-0.07357911808406736,"179":0.17434664603600222,"180":-0.01988085468337706,"181":-0.17546114560799275,"182":-0.11022506594169465,"183":0.11403878253733736,"184":0.14486251236223174,"185":-0.07549100520508041,"186":0.14390263593408786,"187":0.1960338468882744,"188":0.048482591851672134,"189":0.047348448355113294,"190":0.002984624656239691,"191":0.08762151360762409,"192":0.21341244624087952,"193":-0.22414611296792558,"194":-0.3385033027541717,"195":0.12273559686269157,"196":0.25541463918356166,"197":0.107763620669917,"198":0.017822495699719214,"199":-0.03439235092656909,"200":-0.22813858572330212,"201":-0.19894531515297145,"202":-0.0914147358444369,"203":-0.06646785081239287,"204":-0.18989229165498686,"205":0.1685984760722513,"206":-0.18444404332805825,"207":-0.03250203219166582,"208":-0.032994794707960434,"209":-0.025392287490773907,"210":0.10080137629428315,"211":-0.13383588091757823,"212":-0.047435600814018285,"213":0.13641486414727108,"214":0.1030139743055579,"215":0.06198492454828326}},"2":{"bias":0.06101113331971973,"weights":{"0":0.13991986276142446,"1":-0.08830137324229086,"2":0.12212519862537802,"3":0.05493954298600494,"4":-0.03174469697810435,"5":0.08556124909711059,"6":-0.12225699349166483,"7":-0.0400796256836893,"8":-0.15412637239738647,"9":-0.14610664320882724,"10":0.11068960897437277,"11":-0.1392588818906156,"12":-0.053056785894252785,"13":0.26190803675486507,"14":0.05378344484037801,"15":0.10849779570750806,"16":0.0458082194616277,"17":0.12290534541773988,"18":-0.045241288505537755,"19":0.01856252438783653,"20":0.05848601599117134,"21":0.16445622096426696,"22":-0.1527250446292075,"23":0.005566526458039257,"24":0.14056133543038823,"25":0.15312625071545874,"26":0.11752126095166739,"27":-0.003175427554416681,"28":-0.010967401253344533,"29":-0.13432217971392987,"30":0.1916940614226373,"31":-0.08568785248029173,"32":-0.2559686444850767,"33":-0.01983742919261225,"34":0.3622440213342207,"35":0.1703866297729916,"36":-0.16220625171971867,"37":-0.12781866128423608,"38":-0.20841059997672168,"39":0.1624643785888953,"40":0.06088664225239819,"41":0.08807010971374982,"42":0.16449691896315813,"43":-0.11600221300872736,"44":0.08454357070448247,"45":0.06354382174621016,"46":-0.13539899298591013,"47":-0.14325858164213323,"48":0.14662364805167122,"49":-0.05759893373013069,"50":-0.4587347003859375,"51":0.30229246728649767,"52":0.2727225417193897,"53":0.04789327715386885,"54":0.04984715654263556,"55":-0.015887200571413823,"56":-0.05850236423251245,"57":-0.07633789446262301,"58":0.13332197384236058,"59":-0.020991433432536528,"60":0.1469821920158564,"61":-0.0964912635222931,"62":0.09368060734258844,"63":0.0976822932069666,"64":0.05478653660188099,"65":0.1363344724450643,"66":0.16364001232683664,"67":-0.010076432093180666,"68":-0.061291607594766706,"69":-0.151959788304158,"70":-0.03546581228213451,"71":0.27670742512316554,"72":-0.20113636486998238,"73":0.24052847061648924,"74":-0.13492774735761132,"75":-0.17692326379621695,"76":0.1650771246717475,"77":0.010366342123656612,"78":-0.046932869756765964,"79":0.03845736041566078,"80":-0.23026420231264522,"81":0.0006778567331618415,"82":0.08868062447771434,"83":0.05502191141505451,"84":-0.008593505856687403,"85":0.186907653392039,"86":-0.1665307432414767,"87":0.1516186955911991,"88":-0.07051060427205705,"89":-0.12909329874674413,"90":-0.15090747659284107,"91":-0.0104535030916658,"92":0.1664526420008645,"93":-0.12043476262074267,"94":-0.04694461693028884,"95":-0.07980947647771386,"96":0.16050739380803744,"97":-0.07931405857796593,"98":-0.23387654842560793,"99":0.055243913330766004,"100":-0.09432893312244736,"101":-0.08764179735087248,"102":0.22822808815649792,"103":0.16670397594666303,"104":-0.17223791661290627,"105":-0.2407313254423396,"106":-0.0035870323616654445,"107":0.07307393292871134,"108":0.061126340828283464,"109":0.2397390959339365,"110":-0.10568182266191026,"111":0.1903165904603575,"112":0.06231491603403732,"113":-0.0894829175697814,"114":-0.19837725777559498,"115":0.09943132190116286,"116":-0.038036711678231305,"117":-0.02146509421762191,"118":-0.08244256258387518,"119":-0.06064044528363751,"120":0.22738721892137836,"121":0.24380870056143172,"122":-0.18512256936708982,"123":0.04086077297142607,"124":-0.17092900357734384,"125":0.16276033498468098,"126":0.07093358130451817,"127":0.14400526719989534,"128":0.10509352327365758,"129":0.029825760704570763,"130":-0.1876532801307128,"131":0.18803465668616312,"132":0.14032574252822866,"133":-0.21300194668946848,"134":0.07101656646482384,"135":0.08074135748520306,"136":0.04016596428123676,"137":-0.018987789245286064,"138":-0.07538853172821901,"139":-0.12080180184016728,"140":-0.055527548469574646,"141":-0.07968030912795114,"142":0.24633795697247907,"143":-0.0568205657876318,"144":0.19809092341130305,"145":0.30077001289910754,"146":-0.09900426216306138,"147":-0.04329349277969264,"148":0.18239879703895637,"149":0.16988418001550573,"150":-0.22489538252114302,"151":0.22850965773514845,"152":0.20377561977552944,"153":-0.15241057776457476,"154":-0.1642418175328692,"155":0.01631643991151421,"156":-0.20680702293359096,"157":-0.09899835763604857,"158":-0.026038842345599052,"159":-0.2329609213899056,"160":0.1287685172485093,"161":0.06647763402582242,"162":-0.07219373499828613,"163":0.01906940800582329,"164":0.0666363376106379,"165":0.2183431366396045,"166":-0.04771654629031412,"167":0.12033389271367045,"168":0.10900316657793817,"169":-0.002183233025391956,"170":-0.14458391072583548,"171":-0.13878079423928097,"172":0.1317289150080827,"173":0.22256746325859514,"174":-0.06352542603755076,"175":-0.08522354808295657,"176":0.2169017413128066,"177":0.135801052177579,"178":0.08290882754917284,"179":-0.08485809764476639,"180":-0.05638690869479747,"181":0.13291907848306106,"182":-0.014645699254019876,"183":0.10726058372486787,"184":0.18069307722843833,"185":0.14381879884028032,"186":-0.06397204521277569,"187":-0.15277845438046583,"188":-0.01717553071177562,"189":-0.05098199893882396,"190":0.12953209463171153,"191":-0.12698422938320295,"192":-0.1006046642318216,"193":0.09273103061884147,"194":0.16916915908834498,"195":-0.1730623487471979,"196":-0.055827595780788594,"197":-0.05920256977077247,"198":0.04012399015761842,"199":-0.010660260549201278,"200":0.011796356563131102,"201":-0.1382385206523118,"202":0.16377709964964243,"203":-0.004575879520334856,"204":0.17411606522090164,"205":-0.1697754083781585,"206":0.181840652079234,"207":-0.16256454245364022,"208":0.1927659482518572,"209":0.027229677090972102,"210":-0.033766221194638485,"211":-0.13221403077291485,"212":-0.07606562103974318,"213":-0.01822739236808944,"214":0.07511074720746284,"215":-0.11061506247170154}},"3":{"bias":-0.20572313069234097,"weights":{"0":-0.057739010427518805,"1":0.046090873459917546,"2":-0.17500935984036436,"3":-0.20076997972613306,"4":-0.06526018137276333,"5":0.03302662863122729,"6":0.07662901824973371,"7":0.045694440690199956,"8":-0.16010370843285462,"9":-0.15959706913081134,"10":-0.030846112612195505,"11":0.16781975302976848,"12":0.10818257153166785,"13":0.15964156267857899,"14":0.08025144403077038,"15":-0.13599500008191787,"16":0.11695137505920267,"17":-0.012226320247206192,"18":0.11979536323715174,"19":-0.1990845657786541,"20":-0.012002529150954497,"21":0.1098039480482872,"22":-0.2350838769103217,"23":0.020020694739630952,"24":0.10780625420379461,"25":-0.0519307354951754,"26":-0.17830745024701045,"27":0.12601564669574702,"28":0.03396178141825715,"29":0.1809882177853037,"30":0.14956428453416817,"31":-0.19832283070434495,"32":-0.09944724626241598,"33":0.17080799394626622,"34":0.03480663925675043,"35":0.013021185735428712,"36":-0.15324262000700833,"37":0.0031356571402544873,"38":0.21997979044070876,"39":-0.1680992263071127,"40":-0.1915969445916662,"41":0.1425915994496491,"42":-0.17448102778176994,"43":-0.16661116373429785,"44":0.11480985420966071,"45":0.23786955960686976,"46":0.09442247012091884,"47":-0.09959000141320079,"48":0.10222646095873628,"49":-0.2407355184323148,"50":0.282028522265177,"51":-0.12960491925824294,"52":-0.1675631058612036,"53":0.029448006058689833,"54":0.15133272942078788,"55":0.16811986800228268,"56":0.053433501822137686,"57":0.027273069147170263,"58":0.07650694826776046,"59":0.12800622435411405,"60":-0.2374050538492195,"61":0.021186426722765262,"62":0.23917776605416174,"63":0.10017726287017287,"64":0.2215870275202709,"65":-0.14521431290994088,"66":0.225880359330615,"67":0.09552665740202186,"68":-0.05479677944244361,"69":-0.06683035410114802,"70":-0.11061218640370735,"71":0.014519031384441071,"72":0.1579005587520194,"73":0.04996589098308645,"74":-0.102389870684939,"75":0.09609549483583603,"76":-0.1458586833564449,"77":0.13032433005827262,"78":0.05193137403525373,"79":-0.0589205399066689,"80":-0.14920795920354238,"81":-0.1440044906889291,"82":0.10903400136393557,"83":-0.15700439006347994,"84":0.025671300310686658,"85":-0.04507757998278963,"86":0.013641990653155352,"87":-0.05637334866554057,"88":-0.13803940111397206,"89":0.13367441572807565,"90":0.04908413323466428,"91":0.017208247391136574,"92":0.09672689159844974,"93":0.049518082242713736,"94":-0.08729731314842944,"95":0.17566035275483363,"96":-0.19049906389657792,"97":0.13534720047481313,"98":0.23850072986134183,"99":-0.19326456037237313,"100":0.01837128892897308,"101":-0.13918231327428024,"102":-0.24783919371601162,"103":0.009317593503462784,"104":-0.09801504022715794,"105":0.07760052503462134,"106":0.09466558257728509,"107":-0.057412518378254195,"108":-0.21898868188694895,"109":-0.08002263497090883,"110":0.14700992219140177,"111":0.02094022324790303,"112":-0.000412005018585766,"113":0.13824344389203297,"114":-0.0952840009281593,"115":-0.026189359626052195,"116":-0.20657514801636037,"117":0.18870051731272292,"118":-0.10307355278456701,"119":-0.053997807691770615,"120":-0.13202995687107608,"121":-0.15732427541086727,"122":0.047228444346824404,"123":-0.06254500965394319,"124":0.11568314883676335,"125":-0.17137134731257606,"126":0.11118790323610138,"127":-0.09639253840559797,"128":-0.058475796328168864,"129":-0.08397156621177959,"130":-0.11341991566396538,"131":-0.2527838097683182,"132":0.03865866472592911,"133":0.012470288137451505,"134":-0.1866366413901016,"135":0.09983276206292276,"136":0.10588978804989076,"137":0.10759585171208219,"138":-0.15030054468483187,"139":-0.14223286810484895,"140":0.18113739463009162,"141":-0.0649419644642104,"142":0.1854215932927498,"143":0.09926682352302114,"144":-0.08685396325191523,"145":0.10922534780883582,"146":0.14472821156617446,"147":-0.19126313535360476,"148":-0.08802444003316856,"149":0.2450031906785429,"150":-0.3369273710766703,"151":-0.15653579710964435,"152":0.08222755994728091,"153":0.09768404122864774,"154":0.0981864030218246,"155":0.025875765695882846,"156":-0.06709683758667882,"157":0.020175714874622167,"158":-0.1445982263766945,"159":0.06423456646259335,"160":0.1419037454029667,"161":0.022621937050012024,"162":-0.041984704314162444,"163":0.10828286418988585,"164":0.25192427791197325,"165":0.136453458977035,"166":0.21345097877318356,"167":-0.1261760613275228,"168":-0.012442549599575721,"169":0.20837422548549056,"170":-0.05513720880243184,"171":0.06746985318055876,"172":0.16198619165680855,"173":0.12892801852407737,"174":-0.06634191631823604,"175":0.08299991525920679,"176":-0.02868749572980206,"177":0.1423748820802869,"178":0.029372399723541984,"179":0.04239771167230764,"180":0.02292484303829436,"181":-0.1967608586480737,"182":-0.05045702974330229,"183":0.049118265943763756,"184":-0.07090114428296852,"185":-0.12754838160096324,"186":0.10425058326062733,"187":-0.01203753828326798,"188":-0.04103769005203635,"189":-0.12911722523240374,"190":-0.12406385043492842,"191":-0.18847631680717092,"192":-0.09891481521987308,"193":-0.1227480828661353,"194":0.022570620630172667,"195":-0.004353326844225161,"196":0.1034375109585189,"197":-0.16524967060767556,"198":0.0025992092630828093,"199":0.04622295374960736,"200":-0.032183056832096386,"201":0.16384045571552222,"202":-0.029580757337945556,"203":-0.07115019152082913,"204":-0.2329349972178643,"205":0.10161503774965601,"206":0.2367147988589384,"207":0.07617800653733632,"208":-0.15400099079101975,"209":-0.001451474242648714,"210":-0.009667781600146334,"211":-0.20505290033914955,"212":0.12929863602639718,"213":0.058941828660090206,"214":0.10666509740890967,"215":-0.07398461458975052}},"4":{"bias":-0.022137713460420066,"weights":{"0":-0.030265160074937437,"1":0.12225338491611175,"2":0.04297450309002125,"3":0.0715844634034638,"4":-0.04627416604409352,"5":-0.00876297643663266,"6":0.0801447476824476,"7":0.06304128639735083,"8":-0.1619618763118573,"9":0.18247635030184695,"10":-0.06154976922912648,"11":0.18353732727437683,"12":0.11882571603325151,"13":0.01869151754774661,"14":-0.013545261939299844,"15":-0.00016695398032033374,"16":0.009595828687625933,"17":0.04141294709373268,"18":-0.17756519960974151,"19":-0.03665330085090466,"20":-0.1370503400279743,"21":0.21445313259640542,"22":0.10450074496491032,"23":0.036537007013344086,"24":-0.05810491128499989,"25":-0.17001148057010715,"26":0.031305350365275236,"27":0.05642682738250692,"28":-0.09073774218772619,"29":-0.1757067119359978,"30":0.09024756240337177,"31":-0.005671473882797478,"32":0.12682724872785486,"33":0.15491530227602754,"34":-0.0027453878578994773,"35":0.18037085709425768,"36":0.15956693675494835,"37":-0.03240948624298569,"38":0.004564146015309958,"39":0.11374814848472882,"40":-0.11731007795976024,"41":0.14539349154760836,"42":-0.05103105695766514,"43":0.11939803662695202,"44":-0.08029716633199173,"45":-0.10452683416522034,"46":-0.18639690940109757,"47":-0.04652837531018541,"48":0.18258906619194415,"49":0.010348493519326186,"50":-0.24761255634739207,"51":-0.007488431455581581,"52":0.14964529661058373,"53":-0.14098479854288226,"54":-0.03196110247012764,"55":-0.19198127093485792,"56":-0.18089508506377971,"57":0.17681771894159176,"58":-0.15415300507136084,"59":0.16183913315451343,"60":-0.024384923583315104,"61":-0.24326641187410844,"62":0.04062108792873344,"63":0.22802330024304998,"64":0.17429065702319121,"65":-0.1644647386219378,"66":0.1398376407024531,"67":0.0975911706489921,"68":0.15077277347609758,"69":-0.03803221267318157,"70":0.18460154454521638,"71":-0.17765763924296735,"72":0.005017219076063818,"73":0.0914045683557128,"74":0.1902167404652293,"75":-0.04221345020673083,"76":-0.12816208021373637,"77":-0.19747848413694563,"78":0.13622379474857907,"79":-0.0351483458794414,"80":-0.05492832395717941,"81":-0.03235106292679646,"82":0.08163174627207133,"83":0.14898653944599868,"84":-0.11844885230613518,"85":-0.023035246985105912,"86":-0.13458218946452163,"87":-0.17102664377470772,"88":-0.12439114238884849,"89":-0.07122973393527929,"90":-0.09095932674182163,"91":-0.10023900607897973,"92":0.07481299055588034,"93":-0.04264660540421778,"94":-0.10685917849349802,"95":0.05748723019575211,"96":0.10603438174502285,"97":-0.0006834555564046448,"98":0.15820421478867855,"99":0.046756991468830784,"100":0.22692788457345814,"101":-0.10688521283326854,"102":-0.03778147328693269,"103":-0.061532814962530276,"104":-0.06392913157910085,"105":0.16789532007874403,"106":-0.22192860808369008,"107":-0.22813062585062624,"108":0.1567213626175622,"109":0.11058789043688583,"110":-0.1365813750731229,"111":0.11218415898701338,"112":-0.1123704154210012,"113":-0.18260542386601827,"114":-0.146770308948659,"115":0.03833059979483898,"116":-0.15954294707227815,"117":0.10277755072482538,"118":0.16009703169374748,"119":-0.015668412838196585,"120":-0.02006835079124283,"121":-0.0635234027103532,"122":-0.05979668604301847,"123":0.14597689055588903,"124":0.09306481387398861,"125":0.06853804252466557,"126":-0.014381155443553915,"127":0.016422078899754174,"128":0.20065975203433348,"129":0.025430134211627823,"130":-0.09664475239166692,"131":0.04882672278827675,"132":-0.024539917343299383,"133":0.08008956429968889,"134":0.06049059965486924,"135":-0.10059941523488515,"136":-0.04225947561934514,"137":0.004393087802387238,"138":0.02432353583309527,"139":-0.028978855996124306,"140":-0.038201811677288006,"141":0.07851428765339805,"142":-0.01989246405577572,"143":-0.14973343743693998,"144":0.10826752228021085,"145":-0.21522741526034914,"146":0.11302163295187571,"147":-0.02519896658379218,"148":0.028051913765431084,"149":0.09180270428648916,"150":0.058406677620340894,"151":-0.10343850576850244,"152":-0.028519647967914598,"153":0.11884151093288461,"154":0.09458128453893587,"155":-0.016352618559396407,"156":0.14604750368061156,"157":-0.023058836850573323,"158":-0.01676211996527377,"159":-0.17000072422926468,"160":-0.03283089060442047,"161":-0.04759411081552602,"162":0.06100053030143475,"163":0.13665893038289978,"164":-0.3037569462603096,"165":-0.12349352796567184,"166":-0.05581511685471838,"167":-0.024179797545423546,"168":-0.11114435045455798,"169":0.008749782275872631,"170":0.07352370463334286,"171":-0.07099532430153002,"172":-0.05737679485383627,"173":-0.041589448497745166,"174":0.1191830068252294,"175":-0.14882629890637047,"176":-0.12792164066495926,"177":-0.13640751403805676,"178":0.09683033116531359,"179":0.12035495773454381,"180":0.045154874493312507,"181":-0.18178234400673554,"182":-0.2521741556609196,"183":0.03960609336832336,"184":-0.19269791783919807,"185":-0.12771923801397286,"186":0.08640886032822288,"187":-0.1521416929098129,"188":-0.08738476944217596,"189":-0.12917009853958691,"190":-0.058773905441142915,"191":-0.18102189002121571,"192":0.11936029957157544,"193":-0.040850024849424314,"194":0.12329526694473515,"195":-0.038349013466995714,"196":-0.011105367859949058,"197":-0.0043885935946724065,"198":-0.006371405449090776,"199":-0.08067487694854172,"200":0.16016952039781218,"201":0.17350235751898851,"202":0.03437372750097239,"203":0.11570650364975918,"204":0.10442069839908513,"205":-0.06387700387023403,"206":0.03591788102363995,"207":0.05434671108485583,"208":0.028690271936965238,"209":-0.15610609074268128,"210":-0.03352186960119205,"211":-0.153109831100733,"212":0.041803715296579794,"213":-0.08724553252916903,"214":0.00480005097359987,"215":-0.020132697955144857}},"5":{"bias":-0.17070544800845716,"weights":{"0":0.08473803468415242,"1":0.016693179614745708,"2":0.03767711370340769,"3":0.10260343634482792,"4":-0.048950699658045216,"5":-0.10299175815722862,"6":-0.06288771332466478,"7":0.22859527107298408,"8":0.16404173538367786,"9":0.001994130844615337,"10":0.12998475302230672,"11":0.1370851954385698,"12":0.005788626855193738,"13":0.14091533004498166,"14":0.18081351943453183,"15":0.16045218439797335,"16":-0.09752891527859212,"17":0.08881167388473594,"18":-0.18255133254929556,"19":0.2343049013590708,"20":-0.23979192420906945,"21":-0.22675168805471524,"22":-0.3222841458390768,"23":-0.18038227052077305,"24":0.08461181408482502,"25":0.1269654046454359,"26":-0.08465280909299333,"27":0.15801608775099033,"28":0.0946021636209765,"29":-0.16610152224628996,"30":0.025419747580394787,"31":0.1459913443008687,"32":-0.23973569365430403,"33":0.08270357159212705,"34":0.2190840847524767,"35":-0.16899309500027718,"36":0.06848242132568094,"37":0.16555249153304688,"38":-0.15433042513179374,"39":-0.13372142704111076,"40":-0.06401658769495058,"41":-0.14719369532478965,"42":-0.09924141824005764,"43":-0.07805407828974932,"44":0.0329926547375864,"45":0.11939432521371121,"46":0.09365753252396385,"47":-0.21133064011911204,"48":-0.1642947512371014,"49":-0.19713870481322412,"50":-0.18211030082082605,"51":0.035456713437932746,"52":0.23677559379539795,"53":-0.11855405151214077,"54":-0.02731084022987907,"55":0.06488838985192014,"56":-0.025596727664486046,"57":-0.09253024602982574,"58":0.19149378266151454,"59":-0.14987207772589806,"60":-0.11612331656086555,"61":-0.15805411236183253,"62":0.07385335159386507,"63":0.020377414511468017,"64":-0.04295445064754534,"65":-0.06640305991527518,"66":-0.20888041842750144,"67":-0.18242049308415223,"68":0.1355328773026089,"69":-0.12772062531474443,"70":0.16236016814099893,"71":-0.1490438409618016,"72":-0.0920494398670771,"73":0.3166550967483034,"74":0.21268856681643214,"75":0.18936182498865992,"76":0.1495527208968213,"77":-0.06563609776020819,"78":0.06325060571534624,"79":0.01268991628603583,"80":-0.07497759334561734,"81":-0.07562426849502867,"82":-0.22174898389102377,"83":0.1339569021859505,"84":-0.10147326392788385,"85":-0.217440207492641,"86":-0.04488787023778327,"87":-0.12879236049878656,"88":0.035385603222964905,"89":-0.011502940854001461,"90":-0.0840120541413925,"91":-0.16156882159887506,"92":0.13707740025789122,"93":0.2414926974413394,"94":0.03924922460486784,"95":-0.06344312573770629,"96":-0.012785660045273152,"97":0.059080249405256705,"98":-0.19086728525800056,"99":-0.20931746729175532,"100":-0.33508661947684276,"101":0.1666675632685157,"102":-0.08434457345509455,"103":0.1696387598682516,"104":0.19470669352135936,"105":-0.13291675298589536,"106":-0.006166699246785648,"107":0.0013827903044425463,"108":-0.0493035362705283,"109":-0.3186152380083728,"110":-0.061598384656371366,"111":-0.014760007914737808,"112":-0.058855688200322526,"113":-0.1151651152029043,"114":0.01146855517296147,"115":-0.04393571845239375,"116":0.1807981316722792,"117":0.1695847835812028,"118":-0.17474327028825992,"119":-0.07995736357372174,"120":0.05880082244947808,"121":-0.12650887703272362,"122":-0.19623585900800616,"123":0.16034258256994086,"124":0.11637541127794652,"125":-0.1607067298162815,"126":0.12193063180815461,"127":-0.09310395798002745,"128":-0.0680717170532895,"129":-0.10653876836934416,"130":0.21900770068390937,"131":-0.0951716228309947,"132":-0.125690714259481,"133":-0.22927761523292337,"134":-0.09605335525759044,"135":-0.13921141132672554,"136":0.03395015289511904,"137":0.0608657751160185,"138":0.18717539156236362,"139":-0.14298066395247414,"140":-0.12746181618506836,"141":-0.02567910406805102,"142":0.11597433278854906,"143":-0.07048275486978194,"144":-0.09230344168325126,"145":-0.366419843008643,"146":-0.03783304288861978,"147":-0.05031278030277973,"148":0.2684684261172774,"149":0.17078506471767718,"150":-0.027865148740239685,"151":-0.002332430669929742,"152":-0.08519494009112918,"153":-0.010298914063462684,"154":-0.006419371090396544,"155":-0.1822120792040744,"156":0.12573750353064522,"157":-0.09225974139469204,"158":-0.13060290207409272,"159":0.030710479430623154,"160":0.13473036806739724,"161":-0.028495838147026827,"162":-0.1660631910140389,"163":0.009789817172647717,"164":0.1539324389258719,"165":0.1238595728661938,"166":-0.08945371861420305,"167":0.10176011398465777,"168":-0.16344063716994378,"169":-0.32057486743873953,"170":0.0592562899251162,"171":0.10840275968513303,"172":-0.026093421902849644,"173":-0.15729686792690997,"174":-0.03417072953410857,"175":0.11731872755731956,"176":0.23114617201277818,"177":-0.042099334844456375,"178":0.10041671353780657,"179":0.0052165181613453016,"180":0.14495577406977592,"181":-0.10803941733572504,"182":0.19116058694358207,"183":0.014857879364721409,"184":0.015468675991085389,"185":-0.14060750074792372,"186":0.18309259849829843,"187":-0.013397039000350107,"188":0.18094706617744016,"189":-0.20395105334809485,"190":-0.18445343022600066,"191":0.009809702670999022,"192":0.009164166344663388,"193":-0.2279581871358065,"194":0.20966653580354427,"195":0.20078898409929302,"196":0.07309386474053836,"197":0.11548478815274082,"198":-0.0780137850681601,"199":-0.17474331738134147,"200":-0.061178440838015526,"201":-0.15644503836341242,"202":0.09392149120793393,"203":-0.01866844176533644,"204":0.06575980308464867,"205":0.13731802617500202,"206":0.06790160394414166,"207":-0.0036652593522177334,"208":-0.19546674068666328,"209":-0.07613568192764304,"210":0.11992414761132494,"211":0.20373883525184275,"212":-0.1020693635745317,"213":0.19011045107584518,"214":-0.1669942066375257,"215":-0.22983439348401866}},"6":{"bias":0.21321173357373097,"weights":{"0":0.07033347904729366,"1":-0.13746221493590047,"2":0.0667784896072769,"3":-0.04704694316800211,"4":0.08114978725761737,"5":0.12178195047086453,"6":-0.12765738206413155,"7":-0.12384608244348504,"8":0.2037949543906671,"9":0.0879193050400002,"10":-0.0770779754923682,"11":-0.14332049913063058,"12":0.015312130410644113,"13":-0.14411487841140144,"14":-0.17077061951468628,"15":0.14800292985512192,"16":-0.10016633469531577,"17":0.12868261137032086,"18":0.1852583154240254,"19":-0.046412606145498685,"20":-0.09988738705431868,"21":0.12608226208252707,"22":0.11067342499278456,"23":-0.10409217592005372,"24":-0.1390611327760444,"25":-0.11557689783109468,"26":-0.10849671853846968,"27":-0.11258493768605302,"28":-0.06022319989540264,"29":0.14579524350591413,"30":0.05739694342824401,"31":-0.1121356021293413,"32":0.23087334551458502,"33":-0.07390775520200082,"34":-0.11828321548356971,"35":-0.05811563838635256,"36":0.1904719593409605,"37":-0.027707311279819163,"38":0.0014195579620233428,"39":0.2053467386086684,"40":-0.14937049265038116,"41":0.19654593055983915,"42":0.11095752655379061,"43":0.07444765423943595,"44":-0.06263244532105736,"45":-0.15524887692047523,"46":0.16502590099907338,"47":0.05570091400699344,"48":0.04084399383268337,"49":0.00012017222389765511,"50":0.10170998306872765,"51":-0.0726058241908556,"52":-0.23512749763071855,"53":0.21435471770561734,"54":0.09450820443055119,"55":0.24113621066174482,"56":-0.12709463757710301,"57":-0.07291863991400659,"58":-0.08771355172649253,"59":-0.16897376398609087,"60":-0.00178403192465948,"61":-0.1583250218466487,"62":0.009885494506628666,"63":-0.019425422723982913,"64":0.07624408791228232,"65":0.18646984235867411,"66":-0.23665888777920974,"67":0.026413955537392956,"68":0.19415190484338624,"69":0.04587090898287232,"70":0.02839094573369985,"71":-0.2701203659619755,"72":-0.0630362941880668,"73":-0.31923105288443554,"74":-0.3059255238468354,"75":0.16399956379391853,"76":-0.18504072319550638,"77":0.10494447689432558,"78":-0.14218435265953125,"79":-0.06277373400075272,"80":0.023937428530044675,"81":-0.0534656514187797,"82":-0.11022974905707064,"83":0.11948901019048815,"84":-0.05244521914227613,"85":0.009972663711164153,"86":-0.11029335589715016,"87":0.10426086467340827,"88":-0.20988779124316126,"89":0.15450490210770532,"90":0.1008348595899138,"91":0.09905466199849404,"92":-0.06767193086443529,"93":-0.1406244525080018,"94":0.10177730457547761,"95":0.13714930128079367,"96":-0.057260834236810845,"97":0.15609235751437164,"98":0.23150133216024465,"99":0.00032596548316440627,"100":0.019703170597176835,"101":0.18921104259755298,"102":-0.07010706618373644,"103":-0.08923039008255636,"104":0.18250371813679525,"105":0.17747910744565545,"106":-0.1247716133492025,"107":0.022690193667072756,"108":-0.07083742407243235,"109":0.2355603744718825,"110":-0.23523712796084248,"111":0.1295926886708637,"112":-0.10848286577856078,"113":0.028198243757312693,"114":0.09985407890912149,"115":-0.08830334272650942,"116":-0.2271289241629431,"117":0.11416946725156651,"118":0.21805292382903774,"119":-0.15379299108104635,"120":0.04145983815361702,"121":-0.10586315685004538,"122":-0.09788298428416582,"123":0.019056636551183004,"124":0.052542796352468786,"125":-0.12844161665327597,"126":-0.22784015589266104,"127":-0.19172436875502114,"128":0.09763668390332197,"129":0.12832658533881006,"130":0.11097660287572096,"131":0.09575259711259042,"132":-0.11286618311371326,"133":-0.22095672799585442,"134":-0.4050015801581074,"135":-0.08244495188837479,"136":-0.01414516520369973,"137":0.05656521861374743,"138":0.16753317120897132,"139":0.11958923899542308,"140":-0.12136886145364148,"141":0.09898428587914054,"142":0.2550546386936989,"143":-0.07224579389139714,"144":0.11993388471724145,"145":-0.14311460827679967,"146":-0.189186623061955,"147":-0.13728855009822466,"148":-0.049162651493329115,"149":0.03823787008247132,"150":0.09729926754735307,"151":0.25837380154604106,"152":0.06943855587752211,"153":-0.10577788945418383,"154":-0.018987173340679276,"155":0.010795695400469539,"156":-0.1676160118220869,"157":0.03632478288784565,"158":-0.15661163116524507,"159":0.09642013691432107,"160":-0.1802410042560802,"161":0.07511285014030368,"162":0.11917425961591525,"163":0.07413187989628099,"164":-0.07892861010529845,"165":0.18170420273775753,"166":0.15299807382541317,"167":-0.19877867270329952,"168":0.0123898510623886,"169":0.19442319022572252,"170":-0.10224562496312259,"171":-0.0755838567826304,"172":-0.08997703461461272,"173":-0.010479885940214415,"174":0.24142514576832413,"175":0.13718632187958682,"176":-0.29037860589140996,"177":0.13980755626351332,"178":-0.038272932869143364,"179":0.14036318885757157,"180":0.18431209739279425,"181":0.2093489627522099,"182":-0.12491216906057552,"183":-0.0691024965929486,"184":0.03827230722537408,"185":0.15457436249752493,"186":-0.10106712910743108,"187":0.06425923464100029,"188":-0.22937582523503472,"189":-0.09428263745334463,"190":-0.17147588349246562,"191":-0.0855009042322064,"192":0.25815617998472135,"193":0.05641330544048261,"194":-0.33131530058799835,"195":0.1299750533929396,"196":0.10784919635028437,"197":0.013362116385604642,"198":-0.061427170637238925,"199":-0.23755330641211767,"200":-0.22322687780728362,"201":0.007503769532880779,"202":0.09903412418454623,"203":-0.018336222445304116,"204":-0.005851923160404607,"205":0.22591730779543337,"206":-0.22559311516249872,"207":-0.14808980764351268,"208":0.19731089949074876,"209":0.12456380349905469,"210":0.014746414799692575,"211":-0.06489929507553627,"212":0.01848802534291692,"213":-0.009964358508835066,"214":0.13610902561019048,"215":-0.015331525192862851}},"7":{"bias":0.01804512569206556,"weights":{"0":0.06804048498707353,"1":-0.2338815249053184,"2":0.01781196556245118,"3":0.1602738784332405,"4":-0.0543512371936914,"5":0.08178593355467821,"6":0.18879967425813438,"7":-0.1676842724965573,"8":0.12104087099686624,"9":0.03616394953027949,"10":-0.1463947368516627,"11":-0.026868341945387696,"12":0.09579328683778242,"13":0.14713547739752644,"14":-0.1407471369732461,"15":0.13504211140296768,"16":-0.1820984946990359,"17":-0.127008115497832,"18":0.08496381969191724,"19":-0.05799368332715414,"20":-0.1638534517942197,"21":-0.1589849543392924,"22":-0.01630864869801429,"23":0.15361370565527138,"24":0.10673116603582732,"25":0.13999065049029574,"26":-0.03505090680786239,"27":0.06745510537189173,"28":0.13762403351020275,"29":-0.008966080596557348,"30":-0.0341405815518506,"31":-0.1090390892923468,"32":-0.1972985585272485,"33":0.17212851031889584,"34":-0.16812750586072628,"35":0.10292371580005748,"36":-0.09829549545221025,"37":0.003789058159187308,"38":-0.015683700086722645,"39":-0.1608410279860188,"40":0.06934696020962056,"41":0.1865665206224076,"42":-0.19728302579915216,"43":-0.13441928569099174,"44":-0.00744818932951684,"45":0.04540596554939028,"46":-0.17029530341375454,"47":-0.014517710848517506,"48":0.06819098972476273,"49":0.15703149953403206,"50":-0.023301865650625524,"51":0.13901995751270096,"52":0.04246824652364497,"53":0.16017362308812264,"54":0.11204075383723267,"55":-0.08645513339383455,"56":0.19975246703970975,"57":-0.1090205780191761,"58":-0.12717282792789722,"59":0.09101181821180461,"60":-0.04467095458898737,"61":0.10873679895318501,"62":0.13730707454265847,"63":-0.008040275837991736,"64":0.05838329605463086,"65":0.18071583342942632,"66":-0.15458243496964852,"67":0.22572686262504635,"68":0.038572884445287094,"69":0.05595237570539608,"70":-0.012201254997719948,"71":-0.021727603192301066,"72":0.014791757301135855,"73":-0.11859558372093999,"74":0.028032093230373163,"75":-0.13904673190765587,"76":-0.17706603027120166,"77":-0.1980240593382742,"78":0.0634338582112397,"79":-0.07707962045234878,"80":0.029093492056865566,"81":0.11303623044141918,"82":-0.0693997373140465,"83":-0.015747164790022642,"84":-0.08058315891539294,"85":-0.03937017660744707,"86":-0.00402943952801353,"87":-0.02388035580438846,"88":-0.026012492992063204,"89":-0.13925766600411696,"90":-0.07364190593852278,"91":0.3324611835071542,"92":0.17900472436853887,"93":-0.2673224944076728,"94":-0.0764783407477729,"95":-0.06755675993406994,"96":-0.013033752878783058,"97":-0.19243935560343767,"98":0.045839648673471026,"99":0.02133841539494191,"100":-0.06536522542563435,"101":-0.1398437483965248,"102":-0.01251679575097932,"103":-0.07646109848645544,"104":0.1792320866312011,"105":0.09887733453093457,"106":-0.22846519108375377,"107":-0.1242878305220455,"108":-0.14004729238111985,"109":0.2065941852307675,"110":-0.08946369290233869,"111":0.052994975297951726,"112":0.09233236624092377,"113":0.021341592637347327,"114":-0.2729890927668421,"115":-0.1520890409128262,"116":-0.21870353911211596,"117":0.12467549107744862,"118":0.09386096872905665,"119":0.07413543566026376,"120":-0.00016312803721752956,"121":0.210167679663913,"122":0.1988851863204868,"123":0.0691771410459541,"124":0.1552055556274717,"125":0.05651499979322215,"126":0.1668762611366242,"127":0.08153944522769212,"128":0.08030840625205816,"129":-0.18686949296982835,"130":-0.08229916513569875,"131":-0.07103419583668719,"132":-0.23125303105132108,"133":-0.11704906365452812,"134":-0.01899893250071111,"135":-0.09185908358561842,"136":-0.005671147066065198,"137":-0.0012144463062588448,"138":0.01986371969258331,"139":0.17130620589666282,"140":-0.07369789526380308,"141":0.0016937798692438567,"142":-0.11073601045047272,"143":0.018413636138802997,"144":0.17540362308812268,"145":-0.005452360899703241,"146":-0.2650416718414193,"147":-0.14971948792595774,"148":0.09028763730159323,"149":-0.10302012654828535,"150":0.14054763802801643,"151":0.22940102560960493,"152":0.15544997075796851,"153":-0.09989196501032174,"154":-0.09545106646442308,"155":-0.11431884954437435,"156":-0.11659723527935886,"157":0.08828895829351056,"158":-0.03105407774914389,"159":-0.08981002978998372,"160":0.04940860695665543,"161":-0.018616454392195034,"162":-0.1595302872899997,"163":-0.10402992047510175,"164":-0.09344745575058591,"165":-0.18947524900928797,"166":-0.16805123882623077,"167":0.007166837043567325,"168":0.1127080137015335,"169":0.3477846292036179,"170":0.04143852805919624,"171":-0.02096520569460542,"172":-0.008856209363691272,"173":-0.1409723714462376,"174":-0.2592369255601754,"175":0.13281869592018652,"176":0.1197507929290724,"177":-0.08635574358249404,"178":-0.14176966484552558,"179":-0.0696281499336146,"180":0.1405388745028845,"181":-0.0893412689332287,"182":-0.12427920500970002,"183":0.1517069184124629,"184":0.09422562643790676,"185":-0.09846274704105372,"186":0.14316227101731469,"187":-0.2529216935460167,"188":0.03541340316137024,"189":-0.20704360868586597,"190":-0.14623930853505832,"191":-0.1921948192992319,"192":-0.20302611079829772,"193":0.23742509776140946,"194":-0.15113941152739918,"195":-0.16212218759260918,"196":0.06088616662546401,"197":-0.19812203417909255,"198":-0.14586782292445755,"199":-0.19178538128958153,"200":0.1905289900914488,"201":0.12211206640783517,"202":-0.011032484963179866,"203":0.08401135903902947,"204":0.11470958750962265,"205":0.11994675046529917,"206":-0.07090154538468431,"207":0.010644171240262356,"208":0.012330309916413764,"209":-0.06969534230639292,"210":-0.060265225013855575,"211":-0.02947991941212876,"212":-0.13785386885389098,"213":0.0353930141991818,"214":0.1438698297367684,"215":0.11642158406196942}},"8":{"bias":-0.007530803124072207,"weights":{"0":-0.09679387651605026,"1":-0.03498407047515938,"2":-0.1056900424277769,"3":-0.08538775280956423,"4":0.09701595158391793,"5":0.07986603275323047,"6":0.11983858712634524,"7":0.19296607060646706,"8":-0.11420566563698657,"9":0.11757285243372512,"10":0.11542578302309789,"11":0.08892489089524144,"12":0.19760478452472463,"13":0.012839000465329103,"14":-0.07005657487890317,"15":0.047487090439315274,"16":0.1830140978608336,"17":-0.07281629259443016,"18":0.02301999128934124,"19":-0.1336531745258038,"20":-0.1930104088718559,"21":0.16841101674875888,"22":-0.13304422413513145,"23":0.016148782530032737,"24":0.11962114756177541,"25":0.15098219992048315,"26":-0.15172605687485816,"27":-0.11277345765698991,"28":-0.06778248907068754,"29":-0.011528413441539175,"30":0.11894952230478904,"31":0.011459723810051812,"32":-0.12056742042923375,"33":0.26833011279977204,"34":0.08624526566191947,"35":0.08348615358624269,"36":-0.19886446528295715,"37":-0.11864773593463607,"38":-0.06578225224157486,"39":-0.05263301752233343,"40":0.01108816488228993,"41":-0.05993002374240048,"42":0.22507577051297278,"43":-0.051056191905706046,"44":0.048963673195263964,"45":-0.03348448679589084,"46":-0.1861100891149441,"47":0.17438437902392318,"48":-0.021469943428735715,"49":0.059960758814240185,"50":-0.2985348962897894,"51":0.012527937235139838,"52":0.1697185304732747,"53":0.10179259818786093,"54":0.1692092753308444,"55":-0.13687428570056753,"56":0.08336177533840813,"57":0.04652442244919301,"58":0.07075526676502959,"59":-0.22939491163781278,"60":0.03248417086063966,"61":0.10234604909692667,"62":0.051148668524956926,"63":0.05768937856672113,"64":-0.02851286738228762,"65":0.15910544160634782,"66":-0.04626692856947404,"67":-0.16583348008126586,"68":-0.12986941440041713,"69":0.015022384738480422,"70":-0.04780856158573174,"71":0.1900186318571776,"72":0.010593286341953848,"73":-0.15580575811908168,"74":-0.128964420552968,"75":0.15726140865410446,"76":0.2134139931218007,"77":0.027641091732065446,"78":-0.2121994543920922,"79":-0.08192703650896198,"80":-0.14828872815908598,"81":-0.07263427730820783,"82":-0.07878266429387867,"83":-0.05506550408389376,"84":-0.016876923879157724,"85":-0.02710441188306079,"86":-0.26646252145646626,"87":-0.12124042671098408,"88":-0.07603872795779544,"89":-0.02477364287500317,"90":-0.20914012513317087,"91":-0.004210936031073236,"92":0.16643040102105988,"93":0.11448752563932696,"94":0.09476002076826931,"95":0.18953414335493785,"96":-0.2213795732454179,"97":-0.19122360925964055,"98":-0.20270150397987266,"99":0.11938486949867234,"100":-0.0615443087985739,"101":0.11118654170033197,"102":0.0612985562701833,"103":-0.007179751597449898,"104":-0.21421130555745127,"105":-0.16674251285412808,"106":0.06376938720224115,"107":0.05534902924419614,"108":-0.1683878836198501,"109":0.00629173904762912,"110":0.15960498317023328,"111":0.10032773417161016,"112":-0.01945064840356441,"113":-0.06559071161340682,"114":-0.01290251255379474,"115":-0.03279849778204973,"116":-0.013191899453506076,"117":0.11132989597148758,"118":-0.1653164157468297,"119":-0.008537650496711192,"120":-0.026235654194409475,"121":-0.14715425100672394,"122":-0.08754976788878886,"123":-0.229177966719383,"124":0.09470664768725544,"125":0.1116764494793179,"126":-0.1360443197348491,"127":0.2309730629116213,"128":-0.10795834060608443,"129":0.07483839945800567,"130":-0.2467140618717999,"131":0.2817909541286299,"132":-0.013523391716237666,"133":-0.06283222901797848,"134":0.2036163754973936,"135":-0.0582460108835333,"136":-0.03862663709375714,"137":0.1749835351648535,"138":0.15695462311718678,"139":-0.050520932283084075,"140":-0.11415224936117879,"141":0.10240027558607499,"142":-0.12019191969540283,"143":-0.15513440381640917,"144":-0.007889893738346913,"145":0.2403499625674586,"146":-0.07403510404345402,"147":-0.025486646923220318,"148":0.07360589554650987,"149":0.08562404395267666,"150":0.10739054848423665,"151":0.1416288997625368,"152":-0.09735848357029703,"153":-0.13132115382036647,"154":0.05963143946071706,"155":0.13889341665105928,"156":0.17004122560650217,"157":0.02997424215512492,"158":-0.0036806289337009968,"159":0.15189480935919034,"160":0.16450192711101483,"161":0.2562566943548491,"162":0.02730656623570034,"163":-0.08305765154696251,"164":-0.1782745987197586,"165":0.0067001559326679005,"166":0.1514071404713136,"167":-0.16224437752804494,"168":-0.016665605521549356,"169":0.16477970671293046,"170":0.0658703852238705,"171":0.10768415492410226,"172":0.06996784434994965,"173":0.19098075397556277,"174":0.06526103783409282,"175":-0.1740526833170712,"176":0.11229987392865641,"177":0.07407368104082092,"178":-0.07107182150011436,"179":0.08032606161242878,"180":-0.12244151471695636,"181":-0.15285321192799103,"182":-0.088398793291742,"183":0.130996283163403,"184":0.03666912512755355,"185":-0.08002173110268486,"186":0.044699099083743254,"187":0.09854696611569017,"188":-0.15625622404173406,"189":-0.17500245968848788,"190":-0.2224110947976615,"191":0.0033928789155485153,"192":-0.18724275459810918,"193":-0.0917298702212789,"194":0.2741537571494,"195":0.032446169327598445,"196":0.015334565360651135,"197":-0.06178589268108597,"198":-0.16161533015343346,"199":0.18903358037267243,"200":-0.1528210104120936,"201":-0.05935409856769257,"202":0.1410626795446854,"203":-0.1238140940169757,"204":0.1392301270845023,"205":-0.05164503595743187,"206":0.17528376758132072,"207":0.16134345467129282,"208":0.0647240119516715,"209":-0.1567915155525439,"210":0.06841968567369883,"211":-0.07553889591821074,"212":0.16395171244981938,"213":0.1483957944657783,"214":-0.035906290160284335,"215":0.16931367168021824}},"9":{"bias":-0.04774496622605863,"weights":{"0":-0.035493281215723295,"1":-0.10387736369414267,"2":-0.09275991073301434,"3":-0.11320467315943857,"4":0.11807345427156436,"5":-0.1854357815303578,"6":0.051858291202133616,"7":-0.156132432274281,"8":-0.1973333542250249,"9":0.17068279984701717,"10":-0.0869635729017481,"11":-0.06789572248543507,"12":-0.11600667208806598,"13":0.01174592936613501,"14":-0.02926431659485019,"15":0.09162795584592782,"16":0.12579536364330626,"17":-0.008000423367956876,"18":-0.15958432888393637,"19":0.36913634938984297,"20":0.02897181276709678,"21":0.05995890448569536,"22":-0.21193767336014063,"23":0.07549877790874203,"24":0.11591166672251392,"25":-0.23447095626513378,"26":0.006889817979326682,"27":0.0008860156627223475,"28":0.08941747555787884,"29":0.127707038798647,"30":0.1825795785628958,"31":0.19101471674147166,"32":0.10036683479621308,"33":0.04481640200421687,"34":0.11263478509552458,"35":0.11279213970961299,"36":-0.11470553128721925,"37":0.2565014920865471,"38":0.16927399021265555,"39":0.03293700498383801,"40":-0.2150785156831857,"41":-0.1536095816810061,"42":0.03435002208032932,"43":-0.0026298680090226585,"44":-0.16790984159449346,"45":-0.1990044427241305,"46":-0.1347337688540661,"47":0.07877796373269462,"48":-0.034716788180226436,"49":-0.06703932869532409,"50":0.17375130353799897,"51":0.011145432768695025,"52":-0.17465815189688177,"53":0.00021617608034834335,"54":0.11443814028689982,"55":0.2191083483408438,"56":-0.14387222079876225,"57":-0.1427940199840944,"58":-0.10312431849035004,"59":-0.051256685294570364,"60":0.14877404101960826,"61":-0.0869375367455887,"62":0.18671462299062763,"63":-0.16007652856894608,"64":-0.20327413493293825,"65":0.14428349939441154,"66":-0.10696953692221817,"67":0.11364963185571769,"68":0.041174358880244864,"69":-0.05914057280931848,"70":-0.10301304353937565,"71":-0.10559102687667785,"72":-0.2321292848031807,"73":0.12894293355625927,"74":-0.17621964738934418,"75":0.0906514843421218,"76":0.12104582096705513,"77":-0.07505386168719817,"78":0.05298169579459749,"79":0.3572085464351981,"80":-0.13021876006457994,"81":-0.12742477355656937,"82":-0.27996965665751644,"83":-0.06479209051011242,"84":-0.10236349324044856,"85":0.1452127371832563,"86":0.038893943553731866,"87":0.11355871585463916,"88":0.11578585906486938,"89":0.02123557082527955,"90":0.004273687419361835,"91":-0.03076850430352747,"92":-0.0014351389320709145,"93":0.1333989466903882,"94":-0.15695229992221707,"95":0.05200142913694784,"96":0.09929326235789203,"97":0.04357631859698533,"98":0.044999044366415025,"99":-0.022850680858420073,"100":0.01684926970313576,"101":-0.13580540006225938,"102":-0.19301478200338668,"103":-0.07485597485069247,"104":0.0525603545782179,"105":0.03930059276446552,"106":0.15761963104155072,"107":-0.1654776548883076,"108":-0.10429837046481388,"109":-0.023058494797865644,"110":-0.002392899983645951,"111":-0.015743603696041775,"112":-0.022984589597871037,"113":-0.0188060135081247,"114":0.09138073858157278,"115":-0.14009527990222104,"116":-0.24716271008931742,"117":-0.014408535908414304,"118":0.2057629017550148,"119":0.13701085870859056,"120":-0.015779110649859054,"121":-0.03712238177951985,"122":-0.00938573280617055,"123":0.007323881401473681,"124":0.09111826925763325,"125":-0.08133502721762463,"126":-0.18788002811584345,"127":0.08173643989496393,"128":-0.18032223590850793,"129":-0.18773477067938785,"130":-0.0011627138095012797,"131":-0.04733449274140645,"132":-0.14055869746976532,"133":-0.016392019558914808,"134":-0.02537599509332831,"135":-0.008830540336977633,"136":-0.030116859180758675,"137":-0.0759426544723825,"138":0.02566968484607628,"139":0.11530626508943151,"140":0.06677086346202135,"141":0.21692249506785902,"142":-0.06673037102922107,"143":-0.07756952016887421,"144":-0.18455209252988242,"145":0.04437437247365648,"146":-0.03064136773263758,"147":0.11692332784286294,"148":-0.09627146731457306,"149":0.16696231097330214,"150":0.03775575438705142,"151":0.11213724508359225,"152":-0.03446443517137185,"153":0.12694939853219275,"154":-0.18398493706331986,"155":0.08743607614322588,"156":0.07313102777233402,"157":-0.18416949734504912,"158":0.10148768628964197,"159":-0.05756097200571443,"160":0.044666973297805765,"161":-0.09652773350439867,"162":-0.19904733556245446,"163":-0.023849531821013494,"164":-0.09490510779893066,"165":-0.19768211849854106,"166":-0.19675552688976314,"167":0.05636724737182455,"168":-0.17769440996416397,"169":0.16467162330086402,"170":0.15120786667202613,"171":-0.07507564569163093,"172":-0.016828914243984767,"173":0.08910292246024414,"174":-0.07582372615420714,"175":-0.10323643516402177,"176":0.07066834182164253,"177":0.18227874559414553,"178":-0.009094726538872234,"179":-0.034656449537499155,"180":0.09157292824957287,"181":-0.06616137512984314,"182":-0.11331392231061735,"183":0.06888807323162595,"184":0.015562292853131994,"185":0.06641282914520834,"186":-0.16471334876751728,"187":0.07466788901398139,"188":-0.2143175451018342,"189":-0.02612818157836438,"190":0.22967641252445056,"191":0.06194888739011171,"192":-0.06365452358369207,"193":0.09965286446344628,"194":-0.23558672555596208,"195":0.09220353235201366,"196":0.15643318803325196,"197":0.09404407669399319,"198":0.018468970396303575,"199":-0.09440327060693326,"200":0.07396112437666344,"201":0.038975275603943454,"202":-0.10612410698405178,"203":-0.09569378357646598,"204":-0.04571946780439796,"205":-0.12165957974876468,"206":-0.2576897557380885,"207":0.12666856365843282,"208":0.00793058040822241,"209":0.0731035351383541,"210":0.18382608507384407,"211":-0.11475963064763131,"212":-0.152878801913961,"213":0.025804731515242502,"214":-0.01829887977925035,"215":-0.0628779869999495}},"10":{"bias":0.007515627408762541,"weights":{"0":0.06246390948926143,"1":-0.04757072188836739,"2":-0.1271203255281672,"3":0.12906773368644242,"4":-0.003040985338871442,"5":0.0023047087129239615,"6":-0.04845765877116092,"7":-0.14209054202861354,"8":-0.18895533809724796,"9":-0.10041099191652617,"10":0.09564635276721763,"11":0.021618403783315105,"12":0.043020882777827056,"13":0.07618345607112112,"14":-0.010726980663117381,"15":0.022059330592729604,"16":-0.019288669667784312,"17":0.0712790919225634,"18":0.2121326608025735,"19":0.13351471229463596,"20":-0.20916831118698198,"21":-0.15340430580381595,"22":0.025760566082751967,"23":-0.12750807481830206,"24":0.012143137355559155,"25":0.2316513443129082,"26":-0.022886878848439974,"27":-0.17117005907560998,"28":0.021962874087343823,"29":-0.056550312754429975,"30":-0.04021433324588369,"31":-0.10576708689506485,"32":-0.06895915430727975,"33":-0.11007309351529806,"34":-0.10137337727899925,"35":0.1824592883984011,"36":0.0903315878239567,"37":-0.12850609149861092,"38":-0.10850900998794392,"39":0.03715831057047802,"40":-0.04744637341249506,"41":-0.024801668463365536,"42":-0.09350580411338594,"43":-0.05694880026270345,"44":-0.14171542859371541,"45":-0.028816438469423233,"46":-0.021708780375701675,"47":0.07214007170033589,"48":0.13235252618902704,"49":0.163345244097519,"50":0.052464970064551295,"51":-0.11363714750820925,"52":-0.044828881557496605,"53":0.06842342432035496,"54":-0.031993744227281115,"55":0.12272267764701444,"56":-0.23638736044167752,"57":-0.005322132561152203,"58":-0.033717909418568844,"59":0.09691058169171814,"60":0.10185966257489573,"61":-0.1285364671760502,"62":-0.192801222638676,"63":0.09132726670188156,"64":0.010412779477371065,"65":0.11530620869234362,"66":0.009954754676599523,"67":-0.08877644847120314,"68":-0.04075296667475857,"69":-0.20608913968680007,"70":-0.16432081849912203,"71":0.14961085340497163,"72":0.040547492985640976,"73":0.16023982919544164,"74":0.13927766674909506,"75":0.14753508363932752,"76":0.17199980865326842,"77":-0.05130281711017869,"78":-0.17231789810133255,"79":-0.0929151334180682,"80":0.01716639976548281,"81":-0.016677497660197858,"82":-0.171893072873656,"83":-0.15910121361388255,"84":0.010350087361259816,"85":0.02892696132540815,"86":0.28060227032502383,"87":-0.12508308640221202,"88":0.03375841531375609,"89":-0.11559412471457461,"90":-0.1538909225732334,"91":-0.29587720234852133,"92":0.22465107045000968,"93":0.03778790795762905,"94":0.22838101603075572,"95":0.18145437877754197,"96":-0.11935482660226646,"97":0.18796225663139055,"98":-0.1912053094580159,"99":-0.16657958561018685,"100":-0.15335999666387706,"101":-0.05475641337033799,"102":-0.012090586381605775,"103":-0.09420852563421546,"104":-0.08497020046118531,"105":0.012937163735756199,"106":0.09295035772450022,"107":-0.050079904420238595,"108":0.01752166699150815,"109":0.052261562600149004,"110":0.1771871412727267,"111":0.05434602538883752,"112":0.23923987472803107,"113":0.06247672205355178,"114":0.09145233187705369,"115":-0.016714007994978408,"116":0.29836292417510935,"117":0.08235919511157787,"118":-0.05027880012450868,"119":0.0007007153082859998,"120":0.14507343060763028,"121":0.02488943726953778,"122":-0.14772648426171633,"123":0.022955009380387616,"124":-0.14571794030775004,"125":0.21133987854619238,"126":-0.039712911889162816,"127":-0.07436152491883032,"128":-0.1252345312703717,"129":0.10478605726452647,"130":-0.16843233457827006,"131":0.3514639529232832,"132":-0.0402966693358088,"133":-0.13125508667202382,"134":0.17547725650725113,"135":-0.1863028068852381,"136":-0.28758885564399095,"137":-0.20683215766279942,"138":-0.1290198709718719,"139":-0.07991269226780383,"140":0.1009633038189193,"141":-0.04245612629015288,"142":-0.058881936279051965,"143":-0.10571315839367508,"144":0.06193786068656144,"145":-0.00939811020472618,"146":0.11571411834564543,"147":-0.02341583169215928,"148":0.10263209613246267,"149":-0.05993448748997335,"150":-0.1073781484757369,"151":-0.08299426920445614,"152":-0.01413419244582178,"153":0.2808620769087281,"154":0.06290465112027813,"155":-0.05052072358150176,"156":0.11744033965643408,"157":0.027763288226203706,"158":-0.07547114954267185,"159":-0.0227988997572232,"160":-0.07114737334135514,"161":0.055222109211537564,"162":0.1268458568217026,"163":0.021335137113378748,"164":0.040908635060217066,"165":0.0834101624837428,"166":0.11027754115085889,"167":-0.12775222369332945,"168":-0.2221570551445924,"169":0.011902724124922236,"170":-0.11656279893354923,"171":0.004097060685204424,"172":0.07805883532028576,"173":0.08159497925826402,"174":-0.011576119878207664,"175":0.02439151790964022,"176":0.10681260471861591,"177":-0.04190679678308749,"178":-0.08720874209251363,"179":0.1038016218701074,"180":0.0940850179811198,"181":-0.1808191325107863,"182":0.20812420123114309,"183":-0.03303491931756571,"184":-0.21034642776500898,"185":-0.19583600804785883,"186":-0.03668382149406448,"187":-0.18813539895913137,"188":0.12129236641959185,"189":-0.07750659688844692,"190":0.13007369919677061,"191":0.2130544604314958,"192":0.056372168866096986,"193":-0.20528432734481422,"194":-0.08311667061998484,"195":0.032370784405268686,"196":-0.026800366702219736,"197":0.08683936671910344,"198":0.16456199712468184,"199":0.18604672187257829,"200":0.08805460416422353,"201":-0.0971321417703374,"202":0.005661867920159835,"203":-0.14707192243290956,"204":0.0605056416767481,"205":0.15696187394501288,"206":0.048512665115543675,"207":0.10380621953744527,"208":0.18936051341348928,"209":0.0682170888593459,"210":-0.10916926646154756,"211":-0.13025424294568663,"212":0.07199031567376807,"213":-0.1280826600115513,"214":-0.09375235295668811,"215":-0.14932314699909993}},"11":{"bias":-0.29433190531134384,"weights":{"0":0.05451305526427175,"1":-0.10006337960962496,"2":0.138098314833122,"3":-0.011516418951027788,"4":0.006351563993261772,"5":-0.07711430623308947,"6":0.09195349461002328,"7":-0.054948116096836676,"8":0.14758455794934627,"9":-0.032304042428887604,"10":-0.02676977607588635,"11":0.06869077423395925,"12":-0.20266162129759643,"13":-0.13830722073363053,"14":-0.04594522944192404,"15":0.11985295324129512,"16":0.09622095339241991,"17":0.042642139603863406,"18":-0.23460746295639284,"19":-0.26070567265145494,"20":-0.06716630917197533,"21":-0.12093234956889456,"22":-0.07506474976487788,"23":0.18137748956941757,"24":0.18596096140256074,"25":-0.2085681428143595,"26":0.03385451692573407,"27":0.17135750725916093,"28":-0.055546494155822294,"29":0.08076165886761437,"30":0.1660040960805953,"31":-0.03371328073311118,"32":-0.2486407010809763,"33":0.15392923223656008,"34":-0.08914924317268434,"35":0.07122817288021446,"36":-0.07596804538544004,"37":0.06069847200593797,"38":-0.09092987619628734,"39":-0.0750170111711292,"40":0.030663137450905344,"41":0.18089422446265793,"42":0.042664711529527145,"43":-0.06046294796839666,"44":-0.062041941197461654,"45":-0.03567026599262153,"46":0.15732049929064584,"47":-0.07579664617587863,"48":0.12426420893627568,"49":-0.018356112455029747,"50":-0.03418503183465908,"51":0.23577854139020848,"52":0.021888484884050294,"53":0.17995151473624726,"54":-0.07581522597331738,"55":0.17642987167771915,"56":-0.13268702640609345,"57":-0.22616359515021178,"58":0.17277767902050145,"59":-0.15358748392495788,"60":0.10077903199212261,"61":0.21910644973197857,"62":0.07748646698696887,"63":0.12781448529038764,"64":-0.20211114519496082,"65":0.09246418134760033,"66":0.1406833200849042,"67":-0.12165019699233125,"68":0.10673093619176369,"69":-0.009728529423403529,"70":-0.21859911565172133,"71":-0.025910725075186037,"72":0.058487684648045275,"73":0.007657956594569755,"74":0.00464209466337572,"75":-0.09471458534981803,"76":0.02049710275513023,"77":0.13336279535057893,"78":0.053290964389672034,"79":-0.2693108376858344,"80":-0.17227689660611006,"81":0.018210109800373304,"82":0.15457548265272977,"83":0.1718754120355994,"84":0.042115655043062535,"85":0.09279404242620873,"86":0.017939995095759595,"87":-0.05936452395205977,"88":0.12076151645065848,"89":-0.09947960431509018,"90":0.019108431560139243,"91":0.2586548123646518,"92":-0.04548811271796861,"93":0.2181917666394183,"94":-0.20120860344579095,"95":0.017619075200880248,"96":-0.028858333926711235,"97":0.05468157346404566,"98":-0.27769959409969036,"99":0.08339299101433233,"100":-0.027484723406285848,"101":0.012209728671521255,"102":0.12754870884085345,"103":0.17209170970956633,"104":0.019246697281364186,"105":0.16102403170684526,"106":0.08712034427539113,"107":0.027469609155273494,"108":-0.0058253542905251175,"109":0.09785881471469951,"110":-0.0005230315492771351,"111":-0.09918420827521172,"112":0.14594929385143326,"113":-0.07836674514540636,"114":-0.2950113056379542,"115":0.1823249467524589,"116":0.3196435689959187,"117":-0.16953332509629965,"118":0.07146482628933908,"119":0.14805156559021945,"120":0.02490465062863362,"121":0.24783517491513082,"122":-0.12478461416174035,"123":0.1581127387757431,"124":-0.1519411456772541,"125":0.10714932288770797,"126":0.18004865164356473,"127":-0.053229582798569895,"128":-0.10654246292662595,"129":0.04404687890318926,"130":-0.06358617191591105,"131":-0.16451884123273336,"132":-0.11158516076496788,"133":0.10188174144673928,"134":0.18249077829069724,"135":-0.03644849746844532,"136":0.10513356380959489,"137":-0.1754065273476849,"138":-0.008642135918811692,"139":0.1702498132027683,"140":0.17982515926719395,"141":-0.03924265761173879,"142":-0.040065381587603435,"143":-0.30423900911013707,"144":0.03513689944143306,"145":-0.15882521654332693,"146":-0.044029605568002575,"147":-0.06776430783416888,"148":0.13260778804297232,"149":0.1317780632877658,"150":-0.2501370727717978,"151":0.2154765449223656,"152":0.14770478434993728,"153":-0.03895399319185055,"154":0.13554092658925196,"155":0.021300874267976392,"156":0.20527076921161555,"157":0.16950284767139728,"158":0.02727680629088356,"159":-0.015663365811401292,"160":-0.019170371629452985,"161":0.009506828017045357,"162":0.04362059490804478,"163":0.15852918528781312,"164":0.12384393324429208,"165":-0.08305265719521195,"166":0.06812447926028806,"167":0.14599597246695328,"168":0.1404907997980357,"169":-0.08865180628851202,"170":0.034819993460629584,"171":0.06062052378492628,"172":0.1277167713264983,"173":-0.04589965800957512,"174":-0.26024600300028594,"175":0.15411419349072586,"176":0.30583334062432127,"177":-0.2116181650629469,"178":-0.14814562048137664,"179":-0.06696399524322402,"180":-0.1384724019559805,"181":-0.04810152340129458,"182":0.0012422121213458608,"183":0.022658371502879835,"184":0.08493095469455329,"185":0.15979400072085442,"186":-0.22897393226926321,"187":-0.08965565478541737,"188":0.11248200156153375,"189":-0.1191358936731662,"190":0.008558253503262933,"191":0.030084025575744897,"192":-0.065005793026651,"193":0.32235025857905175,"194":0.27141307095404055,"195":-0.10512689524057972,"196":0.12214303045436889,"197":0.04661090532995725,"198":-0.11171383497674879,"199":0.21609169898038444,"200":0.15066820192291505,"201":-0.19562476226540074,"202":-0.29448872071894355,"203":-0.22611380614168422,"204":-0.23913366776281816,"205":0.14865966951197684,"206":0.1028295760984522,"207":0.07340501513286869,"208":-0.11576902583738947,"209":-0.013155889170453955,"210":-0.1806109844926318,"211":-0.12307597476896139,"212":0.14429396241854786,"213":-0.033728941864275865,"214":0.1441987233096439,"215":0.0603160065860832}},"12":{"bias":-0.1362271687444898,"weights":{"0":0.0016667943959260698,"1":0.12214413856488021,"2":-0.2442870838606475,"3":-0.17365900827501846,"4":-0.17787856909408442,"5":0.18578807539445502,"6":0.03750551017377116,"7":0.10182305688110742,"8":-0.32547342551589836,"9":-0.0131250310348361,"10":0.04968112262073472,"11":-0.16542714013823281,"12":0.3329571488141552,"13":0.14351128348522274,"14":-0.058971618893443004,"15":-0.13282496791920423,"16":-0.19256013530946875,"17":-0.02344410685797371,"18":-0.05490332931510435,"19":0.2856854601055751,"20":0.19428856120121493,"21":0.05074923032616442,"22":-0.04665863340791326,"23":0.07346974604267392,"24":0.16128366173278866,"25":0.007411580751808004,"26":-0.06340566768649718,"27":-0.049830413880141367,"28":0.17735767533269045,"29":0.14690158388778654,"30":0.1287046783654732,"31":0.1406686372761243,"32":0.0850134739501737,"33":-0.12286471892292133,"34":0.15381622973753345,"35":0.11370228130471646,"36":-0.08994845514033419,"37":-0.08648850074560525,"38":0.21504468778941818,"39":0.16368265910117996,"40":-0.16902849272477966,"41":-0.14681934210822417,"42":-0.04281578742691185,"43":-0.23594842753098616,"44":0.016266459402155393,"45":0.23321514156929976,"46":0.014426524453462677,"47":0.0876314411013062,"48":-0.17633815832217437,"49":0.1827671858730725,"50":0.003650694059503705,"51":0.02528912572645618,"52":-0.11758966022950869,"53":0.2151451093829826,"54":-0.08282568165004647,"55":0.17337676352230239,"56":0.11919568687976549,"57":-0.204774220687025,"58":-0.11152685929809196,"59":-0.1395712797563754,"60":-0.10382212245175078,"61":-0.23942948465793054,"62":0.04365041941535949,"63":-0.0337914997581489,"64":0.1946056845736153,"65":0.15915856946390342,"66":0.043557804387301786,"67":-0.06591313439644486,"68":0.22950865073429014,"69":0.03262407729717277,"70":0.17933469029253366,"71":-0.041330444558230636,"72":0.1604727586923936,"73":-0.20710920182302572,"74":-0.15928329987084708,"75":0.026011517359380048,"76":-0.19311615753366754,"77":0.1326972509351807,"78":-0.11873145108343094,"79":0.22119775459102983,"80":-0.03069912007621919,"81":0.17401422900741073,"82":-0.05899094257945667,"83":-0.058082202000580604,"84":0.23796744832341313,"85":0.22417061800691612,"86":-0.38878790107543365,"87":-0.1546211755762264,"88":-0.2137171235581915,"89":0.24746503962669913,"90":-0.2277354549527237,"91":0.04727371010107362,"92":0.013955528548921726,"93":0.09358093929091277,"94":-0.02833233046106846,"95":-0.004352267595822449,"96":-0.019046518457661348,"97":-0.07962326684059967,"98":0.1256254014562652,"99":0.089692454400882,"100":0.1944517185312124,"101":0.1816343848249283,"102":-0.22003963465574367,"103":-0.40112335387957876,"104":-0.13620881653559094,"105":-0.056014550532835036,"106":0.17371146053326642,"107":0.00046830134447898723,"108":-0.251606469600636,"109":0.17715629549384002,"110":0.05548610770872986,"111":-0.23887289712986637,"112":0.0674647039727494,"113":0.17611906420590978,"114":-0.19360644495647558,"115":0.11322907323610219,"116":-0.3000762956490398,"117":-0.1557833679686392,"118":-0.025069826370579938,"119":0.02846306438820645,"120":0.13619416171386514,"121":-0.08525869175685682,"122":0.1659516645691536,"123":0.09666584046709933,"124":-0.10186196602888732,"125":-0.03042972589806917,"126":0.027191889794835666,"127":0.04602777629013935,"128":-0.07592940970374557,"129":0.19442307863870734,"130":0.2192073672831828,"131":-0.24099710022023868,"132":0.016791015744576105,"133":-0.08665028956565107,"134":-0.04278515273506581,"135":-0.004604533791182826,"136":0.001376602801550175,"137":0.14301947762102213,"138":0.08070901863413947,"139":0.058566362331079126,"140":0.05944338469025989,"141":-0.09799504477795772,"142":-0.007649693636804714,"143":-0.09110670589160288,"144":0.28446289428207594,"145":0.16262268171980732,"146":0.056410527721531295,"147":-0.07307998474372208,"148":-0.037905514992812916,"149":0.008559999830310047,"150":-0.2051614149439935,"151":-0.03484137602387533,"152":-0.053991957486963664,"153":0.06787179098695623,"154":0.04859937070058604,"155":-0.15529614236016107,"156":0.10017799467507775,"157":-0.22746402536702243,"158":0.15617650042259915,"159":0.06494674756579395,"160":-0.0005120857497470233,"161":0.19285227081876732,"162":0.09556101224257206,"163":0.0908501687404667,"164":-0.07542794840530806,"165":0.18972120840471765,"166":0.18732011265013293,"167":-0.2157288218122616,"168":-0.03229505381931299,"169":0.31907728320760964,"170":0.3316850536103698,"171":-0.09003042252438416,"172":-0.18127655279017119,"173":-0.10760895843121339,"174":-0.21042367796152905,"175":-0.1838805987269095,"176":-0.19689275312996277,"177":0.06342975257937834,"178":0.12192881136901239,"179":-0.18317131997365696,"180":0.032544152209040805,"181":0.11758582001265677,"182":0.1207676225881446,"183":0.05338616927591424,"184":0.056258710771104864,"185":0.18237170632834182,"186":0.08023186351495258,"187":0.279187406925793,"188":0.1222992172302783,"189":-0.21373692062543515,"190":0.1411571554234751,"191":-0.14106967796666256,"192":0.024865348564495595,"193":0.047899885318430646,"194":-0.03362005743669809,"195":-0.206476882916157,"196":0.04428144502657337,"197":-0.06701219240999622,"198":0.08218390809680876,"199":-0.1948977476334459,"200":0.09713018333666874,"201":0.10571654304070903,"202":-0.07540405512532415,"203":0.16152625431341244,"204":0.09881421108947708,"205":0.14934701532633307,"206":-0.19623021517062367,"207":0.04646521409426264,"208":-0.07081134873192123,"209":-0.024214326265643096,"210":-0.1512504531708661,"211":0.005568043958471431,"212":0.06857385309012129,"213":0.08843108660998904,"214":-0.09197289325708703,"215":-0.1786366247124033}},"13":{"bias":0.004051480215851437,"weights":{"0":0.08924634060773821,"1":-0.14155947404704639,"2":-0.1473441696146804,"3":-0.05219068623407095,"4":0.1681789339057255,"5":0.1260149136232576,"6":-0.06812952622325463,"7":-0.06777560563678899,"8":-0.19854227563037272,"9":-0.02553473273273432,"10":0.18189143018007478,"11":0.06534018357878976,"12":-0.1722339507780769,"13":0.3623386833371131,"14":0.19402550944026686,"15":-0.031342116989302116,"16":0.050632487136026715,"17":0.03801372368415972,"18":-0.09413440458316688,"19":0.24481585572762865,"20":0.028898864087183767,"21":-0.11263105033776749,"22":-0.2926995040466942,"23":-0.10769115890703651,"24":0.05243250065215615,"25":0.028153161667749366,"26":-0.08440323339667649,"27":0.07197758161590856,"28":-0.12045749601508385,"29":-0.15422977638897048,"30":0.019982098146355466,"31":0.03965290063461744,"32":-0.029891715708598415,"33":-0.08001314621534061,"34":0.23394843971354853,"35":0.16210354270273086,"36":0.13071375981526237,"37":0.1490345817704769,"38":-0.07714097845460309,"39":0.027128457836193078,"40":-0.26055508816803286,"41":0.15122579650694315,"42":-0.06900296590020616,"43":-0.09182885804179673,"44":0.07133113293135189,"45":-0.022614119115017095,"46":-0.12147268300369876,"47":0.15285769419998177,"48":0.0965562285184833,"49":-0.027306613699937633,"50":-0.38579579166138317,"51":-0.06570791938655192,"52":0.3244401505900909,"53":0.15809286881855636,"54":-0.029079268902921392,"55":-0.01671796820565864,"56":0.0876672170413651,"57":0.056632854219004415,"58":0.19939524638077571,"59":-0.1750605557980142,"60":-0.15040730869496458,"61":0.08155179919842465,"62":-0.0742340305252875,"63":0.1092831445607981,"64":0.023238209471445333,"65":0.14078931320035515,"66":-0.06025922450462574,"67":0.21521126870500168,"68":0.042540940594828554,"69":-0.12826539369987167,"70":-0.13935587699650087,"71":-0.21447798531833331,"72":0.13415739362778056,"73":0.3238525984171423,"74":0.13175595395666334,"75":-0.12794509693861997,"76":0.14888002798854913,"77":0.08719078148822763,"78":0.12657483211027037,"79":0.2961986616929501,"80":0.17707409636445975,"81":-0.11572073269319005,"82":-0.040557705092080266,"83":0.05548752862593648,"84":-0.04235022795015339,"85":-0.017162713781584238,"86":-0.19642509572692773,"87":-0.1901503141439683,"88":0.030424982136540272,"89":0.13143111912075858,"90":-0.21607114103124728,"91":-0.1895348341438994,"92":-0.14463369507119062,"93":-0.1239369175440767,"94":-0.08612553974539443,"95":-0.03245763822156922,"96":-0.16694003914887337,"97":0.038446157686405774,"98":-0.23409995314858306,"99":-0.05023639677791992,"100":0.023781452325723058,"101":-0.07410462084431808,"102":-0.022991492304799716,"103":0.2444997099457776,"104":0.17681507822959103,"105":0.13613211319954158,"106":-0.02308801725687047,"107":-0.013456093437958507,"108":0.04676332463403368,"109":0.041866127511776735,"110":0.002319629614654397,"111":0.05211210542160065,"112":0.14712232212553422,"113":0.044481072256146295,"114":0.08508232925440479,"115":-0.004706225385407885,"116":0.0890639214411038,"117":0.1278156253961239,"118":0.11110245659424692,"119":-0.15048597713440476,"120":-0.2454762893982694,"121":-0.17431193038937817,"122":-0.18163865448569763,"123":-0.0508700020533514,"124":-0.02822150544569062,"125":0.14936300256451454,"126":-0.13160287656578834,"127":0.14907353668100184,"128":-0.03475481053659448,"129":0.09984783529159301,"130":-0.15443519488971705,"131":0.09346124677892176,"132":-0.23408461135123163,"133":-0.12932266852812618,"134":-0.12177517829451026,"135":-0.07130153352741933,"136":-0.030582060903947945,"137":0.10377567453884183,"138":-0.09093555248931433,"139":-0.032667828213633336,"140":0.099650485426524,"141":0.08202558604701204,"142":0.19171024790552008,"143":0.09304263866843795,"144":0.1874823344120608,"145":-0.08473302291030335,"146":-0.0046544901037845615,"147":-0.058271714946974584,"148":-0.15913717258101306,"149":0.019481457206862732,"150":-0.21655615481128307,"151":0.1604869501325762,"152":-0.1428416452567468,"153":0.06067238144013553,"154":-0.014040050365568713,"155":0.0309704004300861,"156":-0.20870029932560538,"157":0.15910450871220633,"158":0.10069699663672381,"159":-0.029647393593874832,"160":0.08511529994663214,"161":0.11656423782171914,"162":-0.2061479930259046,"163":0.07953802100801137,"164":0.2904445695512194,"165":0.16634157628228216,"166":0.18141457708134406,"167":-0.1393505114317871,"168":-0.24988051236010722,"169":-0.14791801667713275,"170":-0.16738217782966303,"171":-0.08549112247371247,"172":-0.03988795405361145,"173":0.1133275876816164,"174":0.01669730924271826,"175":0.036128646658664755,"176":0.10778952263687458,"177":-0.054822831828777466,"178":-0.07049619631501834,"179":0.18315757518725995,"180":0.04707076371368587,"181":-0.11024415512548502,"182":0.018047273707566515,"183":0.20497404974346484,"184":0.26674858671399904,"185":0.11613186539029081,"186":0.10318287036342447,"187":0.021869665779032932,"188":0.1465268980231725,"189":-0.048036609181900246,"190":-0.023093870109114303,"191":-0.18032954614650595,"192":-0.0507273882138682,"193":-0.04023558958950135,"194":0.0056426955858858785,"195":0.10001145381637332,"196":0.05613715554187289,"197":0.1888249683716399,"198":-0.0489616316970197,"199":0.07438733001661746,"200":-0.030037697724463863,"201":-0.03693738827045871,"202":0.23140963791056204,"203":-0.1639360351019113,"204":-0.11382701606095255,"205":-0.1413865317538581,"206":-0.017809553539895925,"207":-0.17587244134139676,"208":0.07849076567444806,"209":-0.12446883878250815,"210":0.2340706522247001,"211":-0.011252295664310628,"212":-0.10347106101241632,"213":-0.08320483202196079,"214":0.11331744267902044,"215":-0.02031415904839912}},"14":{"bias":0.055112748901251146,"weights":{"0":0.06411272454567117,"1":-0.3130708816597612,"2":0.1089973848006968,"3":0.1339173538577044,"4":-0.115602838898522,"5":0.18287955263995373,"6":0.13653709767632127,"7":0.1187906981889071,"8":-0.19412366590491517,"9":-0.03634320771296857,"10":-0.015835748381373457,"11":0.03866791537615199,"12":-0.027184345591920768,"13":-0.2197901565329737,"14":-0.1325470793915183,"15":0.05681750337933903,"16":-0.0448376881058532,"17":0.1314072681488468,"18":-0.048852392290983676,"19":0.02762732712495868,"20":0.06453302513647727,"21":0.1096281752191505,"22":0.07344322011721419,"23":-0.00166311575235502,"24":-0.04873554397762792,"25":0.04514605668339783,"26":-0.23605453678588223,"27":0.17934547145712057,"28":-0.0027856583684754297,"29":0.10349086520637424,"30":-0.015432038115785196,"31":0.13472715816503625,"32":-0.22195963534685392,"33":0.1420907641289905,"34":0.12089048640300765,"35":0.12290682777655063,"36":0.029831005373197474,"37":-0.016313033587309483,"38":-0.12344041082627887,"39":0.05586195908358562,"40":0.24853358192584385,"41":-0.03355664709216258,"42":0.18436894646332433,"43":-0.0678499718455233,"44":-0.09108336413516444,"45":0.029333112292394464,"46":0.03882349668896922,"47":-0.10556781995591404,"48":0.1596770097297916,"49":0.18162500608085005,"50":-0.13923801910351857,"51":0.04991805372704426,"52":-0.06290097282327302,"53":0.031873247316562,"54":-0.12947411085668017,"55":-0.08879644548389037,"56":-0.1339853692174835,"57":0.174701129803646,"58":0.0915357232531458,"59":-0.027928461230326464,"60":0.24994745016441436,"61":0.12621546963910812,"62":0.08591969976548366,"63":-0.251752523410827,"64":-0.11130148730908912,"65":0.041445975345439034,"66":-0.02052025347533501,"67":0.11747395160302583,"68":0.14471415978518293,"69":0.08477933594447833,"70":-0.24556630561776688,"71":0.20663967585256987,"72":-0.08521710325385598,"73":-0.024222932712471286,"74":0.09239247849418443,"75":-0.11950828642431703,"76":-0.10889279493865354,"77":0.0048448143392744725,"78":0.1070818269715683,"79":0.027587694332641678,"80":-0.009002760626693512,"81":0.2735431325848048,"82":0.07456522225449512,"83":0.1775428168381353,"84":0.31563773878246615,"85":0.10207343363771952,"86":-0.5053872709649602,"87":-0.15336228863242748,"88":-0.3203213274863521,"89":-0.12604078006702885,"90":-0.09190954751012324,"91":0.10266352244208694,"92":-0.2999634386138887,"93":-0.16425345650669937,"94":0.11714328966015779,"95":0.024874348698969463,"96":-0.01755085632460746,"97":0.08876037639890308,"98":-0.01878669316807446,"99":0.16266271739618227,"100":0.34784353611714286,"101":0.046872693157297016,"102":0.20050915743828146,"103":-0.02706420182584659,"104":-0.076921007007673,"105":0.07800654921902998,"106":0.04181114109207403,"107":-0.11677507108477951,"108":0.04777416645020051,"109":0.08196061308360542,"110":-0.1036682472233828,"111":0.08996149950594408,"112":-0.0019526433916775953,"113":-0.14625386147689814,"114":0.05191156611744166,"115":-0.14217757441262718,"116":-0.024111862073407448,"117":-0.1137890530346868,"118":-0.05468098001623353,"119":0.15271917503965926,"120":0.22604983761384076,"121":-0.08140104492244726,"122":0.12394311188682967,"123":-0.1986904228326588,"124":0.025645661177831357,"125":-0.0040794146703813814,"126":-0.175610348705932,"127":0.15165225029652868,"128":-0.14603155561566789,"129":-0.2493880939790704,"130":-0.02732480461403181,"131":0.14785782994756438,"132":-0.13174668819046442,"133":-0.12954633277140928,"134":-0.09893753625569521,"135":0.03549547940528989,"136":-0.05411225804464962,"137":0.044732750042391356,"138":-0.26064173412695285,"139":-0.2965962308491513,"140":0.08718713155841927,"141":0.18739833697604555,"142":0.06988413578664569,"143":0.27397412857398223,"144":0.40054992118001415,"145":0.2964295614000823,"146":-0.13308569730977726,"147":0.10670162215051802,"148":0.03767829475475878,"149":-0.0062511308038144114,"150":0.21402109545821338,"151":-0.15179744877981186,"152":0.021670468913676057,"153":-0.16899491465154956,"154":0.09078085579878056,"155":0.19975588147758108,"156":0.01012005298140271,"157":0.05936423706536271,"158":-0.1617832119949869,"159":0.1038500567757081,"160":0.00826780621290491,"161":0.08649991175270308,"162":0.13636659272331533,"163":0.0994536832401713,"164":-0.21231963083864477,"165":0.23386257779463787,"166":0.19822321958119163,"167":0.12847811327345415,"168":0.07419354454466391,"169":-0.04397992113338457,"170":0.09198516129463694,"171":0.03278501708673386,"172":-0.1674277035553544,"173":-0.16373901787696982,"174":0.06259366050472068,"175":-0.3128196098779128,"176":-0.012614324918758519,"177":-0.06529451012167009,"178":-0.05808015495474026,"179":0.020021174362383362,"180":0.15063105778694252,"181":-0.18530394765843533,"182":-0.12313599537982328,"183":0.11608753498015616,"184":0.06737080698960835,"185":-0.08282759001799034,"186":-0.09477878317367988,"187":0.10288918927375942,"188":-0.05297010691466394,"189":-0.11227109822322096,"190":0.022436524007051973,"191":0.1749104729799756,"192":0.029831737332878736,"193":-0.34349987598611526,"194":-0.3003242430646965,"195":0.09157474423634003,"196":0.07751045854701634,"197":0.023182762718290843,"198":-0.17023999057228462,"199":-0.22809085934459403,"200":0.17965553967534853,"201":-0.049719391732804,"202":0.1650964225120483,"203":0.3446133658649699,"204":0.07547563038409173,"205":-0.1589957392166273,"206":0.05656151549573605,"207":0.12880436089658626,"208":0.1259844638952428,"209":0.1715647962662483,"210":0.1577716574584726,"211":0.02861831323537192,"212":0.07257889526713758,"213":0.0015891115038114488,"214":0.06509100423328269,"215":0.166231582296133}},"15":{"bias":0.14321590845865165,"weights":{"0":0.08512866942749966,"1":0.02175602617995241,"2":0.1616965710251232,"3":0.18352711828983317,"4":0.13290314117049118,"5":-0.01835514579370948,"6":-0.1507609391649344,"7":-0.11582011874782305,"8":0.22118927642367062,"9":0.18910900643876744,"10":-0.09230515202627285,"11":-0.06740806246456922,"12":0.10608131939463847,"13":-0.1808936693835115,"14":0.014690674993957773,"15":-0.03197922295714845,"16":0.10998152272684368,"17":0.05681125910293532,"18":-0.011914511837097642,"19":-0.19838036975526935,"20":0.13954727972935563,"21":-0.031965390700109994,"22":0.2603899937575174,"23":0.13578175560527755,"24":-0.10971465104368043,"25":-0.10575427724188968,"26":-0.06241085669199736,"27":0.04743920018099626,"28":0.04494970027466835,"29":0.17176997370718872,"30":0.12964905315410094,"31":-0.16858125253138595,"32":0.0019290020134723022,"33":-0.11294372592209559,"34":-0.2260744878616256,"35":0.14054578937956716,"36":-0.12738510425710772,"37":-0.047350998260944084,"38":0.2216662712728166,"39":-0.021030981014832698,"40":0.24446229223678667,"41":-0.14807835860395874,"42":-0.03686419985403429,"43":-0.1557304543560484,"44":-0.006744455079631898,"45":-0.009372653244762367,"46":-0.0837006577919879,"47":-0.015086232787191149,"48":-0.018576317322652528,"49":-0.05104584741071542,"50":0.05264030381635315,"51":-0.13678932860790116,"52":-0.3196311546141743,"53":0.015371641465704045,"54":0.023871768254337206,"55":0.1855497574092097,"56":0.11511208139843039,"57":0.1694254719499821,"58":-0.0673527320656292,"59":0.09564304957812661,"60":-0.10878793936584971,"61":0.16490199651824566,"62":0.011544540140282934,"63":0.08984291783113185,"64":0.08946778688230854,"65":0.011431858019073229,"66":-0.05595136735492757,"67":0.1682926909366531,"68":-0.058018256516496884,"69":0.0721941586991898,"70":0.09757534806877942,"71":-0.1290304836797268,"72":0.1710066826833405,"73":-0.23760309797214443,"74":-0.17852032063967244,"75":0.13626159344252228,"76":0.20588753127660384,"77":0.1587241447627739,"78":0.11412972399314444,"79":-0.16800050762271534,"80":0.038246792910948534,"81":-0.10059989195322896,"82":0.05741394946621069,"83":0.09659268259430516,"84":0.14100967749472582,"85":-0.07384961474777814,"86":-0.09758637121656044,"87":0.08057674471869146,"88":-0.09712614815979954,"89":-0.256040197060528,"90":0.08412401565534948,"91":-0.03775407071485509,"92":0.13370483357595872,"93":-0.13663155317961173,"94":0.10409358626986244,"95":-0.15317300599630967,"96":0.16243316685139253,"97":-0.17471084084546964,"98":0.047302563417409606,"99":0.07769757006529229,"100":0.030530955546739794,"101":-0.14704920209696612,"102":-0.018852899722190616,"103":-0.17431572024651107,"104":-0.17590523283351472,"105":-0.1805134068609121,"106":-0.08235804218041538,"107":-0.11608459889835795,"108":0.1496248253122457,"109":0.20382430103664176,"110":0.08764659401625256,"111":0.16036397519739493,"112":0.10228081315282071,"113":0.1020039529972313,"114":0.02105415484744417,"115":-0.11491782937869023,"116":-0.2593992833021127,"117":-0.014455986205478548,"118":-0.17198847857088712,"119":-0.17934528183492657,"120":-0.07755075532300719,"121":0.09499802709070215,"122":-0.0754782477436459,"123":-0.013753126092841612,"124":-0.18836164398062175,"125":-0.06343782902338971,"126":0.13682087419225736,"127":-0.10546323727211306,"128":0.1550783947285083,"129":-0.13703566090090577,"130":0.04127442853621153,"131":-0.22045484519687814,"132":0.010439840145188777,"133":0.10169685097059143,"134":-0.19741743874111525,"135":-0.16708173569101212,"136":0.18274119650753087,"137":-0.11959362256869138,"138":0.015355429661396506,"139":-0.20361181264014488,"140":-0.09867103045268494,"141":0.0759905350037668,"142":0.1159021191612026,"143":-0.18794435598041814,"144":-0.01506879076097401,"145":-0.004488534417738078,"146":0.17549075870702238,"147":-0.15418897924838326,"148":-0.1508835713963005,"149":0.09120827192557024,"150":0.13663484020744238,"151":-0.01403782867905055,"152":0.07424966022899393,"153":0.05519342659953851,"154":-0.04714171006257401,"155":-0.21910066835834383,"156":-0.04751264881410009,"157":0.13757307054829251,"158":-0.13215165296032835,"159":-0.151439539219389,"160":0.05641906197085542,"161":-0.03788637523729598,"162":0.17678304079332913,"163":0.08594616110036372,"164":-0.3099638234062623,"165":-0.1690752742427477,"166":0.0702922956747105,"167":-0.0950699497397638,"168":0.03495980393832788,"169":0.21084973205374377,"170":0.028107641625055114,"171":-0.22449664617505785,"172":-0.01891625527756225,"173":0.13612777046079783,"174":-0.1196573581522411,"175":0.13519454852368618,"176":-0.08213819734245516,"177":0.028922952965328482,"178":0.19074220179284748,"179":-0.17578993709539792,"180":0.2503000752341805,"181":0.16462487333700684,"182":-0.2138460666922818,"183":0.14920364450741963,"184":-0.25944353478243515,"185":0.16632196016841672,"186":0.14460213110548117,"187":-0.22489122916790838,"188":-0.24145630419456862,"189":0.1984278697141809,"190":-0.055383377853342776,"191":-0.13533715984329547,"192":0.07061968070738847,"193":-0.010093844925771511,"194":-0.12514381859957577,"195":0.1811115383831099,"196":0.036598196531817416,"197":-0.049371292702586715,"198":0.004763639249840687,"199":0.16754258768967856,"200":0.04404206129409449,"201":-0.13382564855289295,"202":-0.1095239041674682,"203":0.03392689186054439,"204":-0.03773936181955912,"205":0.07986368357949944,"206":-0.12441778853020073,"207":0.02112427194484403,"208":0.1365323856256439,"209":0.0568038314529613,"210":0.09988876548135067,"211":-0.21205806736777089,"212":-0.12819509618565725,"213":-0.12800676565758196,"214":-0.20562413312865635,"215":0.21447219718403768}},"16":{"bias":-0.2193566056996156,"weights":{"0":0.07195633481765656,"1":0.12641698141242003,"2":-0.07179397483414188,"3":0.14240719873339858,"4":-0.022627479723999394,"5":0.14530458400158605,"6":-0.18712982339780454,"7":-0.006184704936853337,"8":0.07940856903211042,"9":-0.13789169529725198,"10":-0.010862442786439325,"11":-0.051200585570434054,"12":-0.09519321114295629,"13":-0.26399723816077036,"14":0.03880249263572337,"15":0.17581800629695585,"16":-0.01004762671114847,"17":-0.055140879618605504,"18":-0.19013234594724826,"19":-0.21468422099705103,"20":-0.1318148066706675,"21":0.1999404970891411,"22":-0.12538514038985688,"23":0.09022740598898203,"24":-0.12937350194542746,"25":-0.23562223247643524,"26":-0.16822428716027163,"27":0.21244674620770762,"28":0.08625966470755934,"29":0.015470544702848343,"30":-0.02658586197982848,"31":0.004845455448490004,"32":-0.04256143146723285,"33":-0.09838383113083242,"34":-0.061895965959906894,"35":-0.1774291388246282,"36":-0.04283330899966059,"37":0.14505201738431495,"38":0.09008932921014225,"39":0.10479738522838666,"40":0.12615994898736937,"41":0.003736084437340976,"42":-0.11087180650065806,"43":0.10656022117945067,"44":0.04167716474993008,"45":0.012586490000246538,"46":-0.17176009763094338,"47":-0.17839873621496882,"48":-0.09500994726274231,"49":0.10797566956658472,"50":-0.189326731580558,"51":-0.03514669029822327,"52":-0.12033600566419143,"53":-0.05775197066024355,"54":0.17177425450709657,"55":0.06595557351973627,"56":0.16346229326742182,"57":-0.12847261792489126,"58":0.00710630905697368,"59":0.0641264569393043,"60":-0.013426183021269184,"61":-0.1111319066236073,"62":0.16081283755101128,"63":-0.13359562239546988,"64":0.18596692604218312,"65":-0.05886320723918693,"66":0.0993571968449807,"67":0.004762201984344683,"68":-0.1356317205968071,"69":0.08961584621630045,"70":0.04514602800626543,"71":0.19012629364399403,"72":0.10232751200964983,"73":-0.3144714295748763,"74":-0.2849730050495958,"75":-0.07712648383320977,"76":0.09489002994758909,"77":0.14776196139039846,"78":-0.13649917907733355,"79":-0.21358896999987967,"80":-0.12779848333062635,"81":0.1526540041524284,"82":0.12774425221517996,"83":0.014240803648961802,"84":-0.06851963398128888,"85":-0.081201524186766,"86":0.20967208363706533,"87":0.07071481552156966,"88":0.08766558454536458,"89":0.048956914568159586,"90":-0.020121458677770123,"91":-0.18765179270469515,"92":0.16616647015596084,"93":0.11157803907926409,"94":0.0789333117637035,"95":0.09528282107965885,"96":-0.22209202720587612,"97":-0.10365587160059753,"98":0.12378913496043364,"99":-0.07866509425848028,"100":-0.04041131434334067,"101":0.027555977022681016,"102":-0.00272229202942541,"103":-0.22786980455081754,"104":0.05603777026143219,"105":-0.08518952874716568,"106":-0.13797748423149864,"107":-0.05880869095706177,"108":-0.08345519985180896,"109":-0.03636857703792099,"110":0.1585532158539041,"111":0.1325835586253549,"112":-0.11422438194717996,"113":-0.0888038505342325,"114":-0.018144128279392747,"115":0.07090924994499899,"116":0.10713018733750067,"117":0.1218299009774751,"118":-0.046080648084057645,"119":0.0906325880233468,"120":-0.016947288248111154,"121":0.0764246651996885,"122":0.015304324858747912,"123":-0.030387806701209625,"124":0.0033830529044815002,"125":-0.046808015074944156,"126":0.056558008786163703,"127":-0.30076379545660775,"128":-0.1893335322037957,"129":-0.07347732664060769,"130":0.07807557213442834,"131":0.23680842990628137,"132":-0.13043876852263528,"133":0.06235820517886651,"134":0.20345255830811007,"135":-0.02709888213813395,"136":-0.015085902087625135,"137":-0.12432871906880483,"138":0.31059268441150456,"139":-0.15808986092197602,"140":-0.037944824077327396,"141":0.18226207724493995,"142":-0.1335311105044712,"143":-0.18727332009319006,"144":-0.016556866779751413,"145":-0.1738211930341265,"146":0.2149678476084258,"147":0.14829400398146694,"148":0.2894346017981996,"149":-0.15087021414326962,"150":0.05984511375626189,"151":-0.1519709971177729,"152":0.1536155204813473,"153":-0.0882280178255672,"154":0.2071839170070753,"155":-0.051397814097671114,"156":-0.027839621615130383,"157":0.00327122148167736,"158":0.05922138798198379,"159":0.0109474875243222,"160":0.2559897607159959,"161":-0.25166473417914637,"162":0.05382042890293632,"163":-0.11509378886340191,"164":-0.19611793170072428,"165":0.18468086845068268,"166":0.08548573874547706,"167":0.059992480865459843,"168":-0.039182467538294075,"169":-0.13675943971086144,"170":0.13338540716163397,"171":0.23522904609869297,"172":0.16413803861541046,"173":-0.09802438341467742,"174":0.1549635895632267,"175":0.0712593863587542,"176":0.16873448897140378,"177":-0.1963328120227274,"178":0.006055468161020445,"179":0.04530148220962281,"180":-0.13569337134147658,"181":0.08683718159398669,"182":0.0011544890624816976,"183":0.07581300808879382,"184":-0.09294427464418867,"185":-0.203561978670959,"186":-0.08720495295139966,"187":0.062451591170977275,"188":-0.08253873467306085,"189":-0.07727952225737915,"190":0.17460337408793658,"191":0.11411174846292943,"192":0.13321820834221607,"193":-0.08771938595028045,"194":-0.11517054177212635,"195":0.04970788906871644,"196":-0.11460018303205388,"197":-0.1722822755165472,"198":0.22802485912099674,"199":-0.17944628254290074,"200":-0.021916854724616436,"201":0.14393287609708627,"202":0.16041075466272173,"203":-0.1417719870397771,"204":-0.10795795470456984,"205":-0.0248332677531947,"206":-0.15582627910307753,"207":0.05484667513880256,"208":0.02230234212479264,"209":0.14246284943829934,"210":0.13983411567558277,"211":-0.09618130871976026,"212":0.021233795077380168,"213":-0.1486099569143396,"214":0.026893625667999996,"215":-0.04116913680572962}},"17":{"bias":-0.05728547461444524,"weights":{"0":-0.12724430789457342,"1":-0.1502387541391069,"2":-0.2143780844721968,"3":0.07542399451983016,"4":0.14855467606987974,"5":0.10186464381634847,"6":-0.12301590438414287,"7":-0.16496482556230588,"8":-0.23398963160891598,"9":-0.03128214942040177,"10":-0.1605036175974643,"11":-0.1932178297966539,"12":0.047605292872436665,"13":-0.09164278686698599,"14":0.08754310994196086,"15":-0.10058936971302614,"16":-0.039320121316674436,"17":-0.0833146884997454,"18":-0.061017949514295775,"19":-0.11005273018724937,"20":-0.08076434131409824,"21":0.04089176100506445,"22":-0.0658337426887247,"23":-0.06886518384359434,"24":-0.12920191396794867,"25":0.016701421870120768,"26":-0.03965287279796754,"27":-0.16252217700286062,"28":-0.15668122598480283,"29":0.1765985043131257,"30":-0.18850347598282807,"31":-0.11796762453584568,"32":0.22763719676661281,